~o
<STREAMINFO> 1 39
<VECSIZE> 39<NULLD><PLP_E_D_A_Z><DIAGC>
~s "silst"
<NUMMIXES> 16
<MIXTURE> 1 3.812872e-02
<MEAN> 39
 -4.932144e-01 -6.800408e-02 -2.622196e-02 1.809775e-01 8.670437e-02 1.638818e-01 1.526427e-01 2.185476e-01 1.309747e-01 9.963565e-02 -1.514170e-02 -1.556488e-01 1.328301e-01 1.780179e-02 2.515446e-02 4.072466e-02 1.752955e-02 9.762963e-03 -1.600934e-02 -3.956370e-02 -4.658462e-02 -3.366202e-02 -1.602267e-02 9.459839e-03 2.571179e-02 3.857763e-03 3.007869e-02 1.773801e-02 2.333926e-02 3.234270e-03 -3.986801e-03 -1.230427e-02 -2.761126e-02 -2.907084e-02 -2.151806e-02 -1.769832e-02 4.120219e-03 2.297377e-02 5.753930e-03
<VARIANCE> 39
 2.580805e-01 1.561387e-01 1.383142e-01 2.087648e-01 1.505225e-01 1.591826e-01 1.543713e-01 1.534313e-01 1.348045e-01 1.179491e-01 1.000413e-01 7.391639e-02 3.343567e-02 1.213753e-02 1.074914e-02 1.032025e-02 1.278685e-02 1.265986e-02 1.394290e-02 1.580388e-02 1.588170e-02 1.498463e-02 1.329943e-02 1.098796e-02 9.378862e-03 1.083891e-03 2.942322e-03 2.478112e-03 2.214182e-03 3.089376e-03 2.700795e-03 2.947671e-03 3.043528e-03 2.966821e-03 2.890557e-03 2.502159e-03 2.096927e-03 1.559495e-03 3.863219e-04
<GCONST> -9.374147e+01
<MIXTURE> 2 4.399620e-02
<MEAN> 39
 -3.820426e-01 -2.003989e-01 2.058070e-01 4.248383e-02 1.062456e-01 1.045675e-01 -1.909999e-01 -5.142699e-02 4.012304e-02 -3.975414e-02 2.324766e-01 2.040303e-01 2.094390e-01 -1.294889e-02 -1.494784e-02 1.840072e-02 -1.584344e-02 1.729654e-03 7.072485e-03 -1.723951e-02 -1.189550e-02 4.529624e-03 -4.494336e-03 1.316432e-02 1.484881e-02 7.641376e-03 1.477110e-02 2.013665e-02 2.189093e-03 1.392268e-02 -4.545858e-03 1.291017e-03 1.373364e-02 7.052933e-03 -4.466668e-04 7.726041e-05 -2.837495e-02 -2.547269e-02 -9.068372e-04
<VARIANCE> 39
 1.550409e-01 1.394769e-01 1.825770e-01 2.276624e-01 1.974848e-01 2.129984e-01 1.950101e-01 1.800476e-01 1.729243e-01 1.505001e-01 1.093416e-01 8.140878e-02 3.392024e-02 1.035436e-02 1.416618e-02 1.501859e-02 1.842860e-02 1.793001e-02 1.986723e-02 2.219118e-02 2.056747e-02 1.998904e-02 1.699422e-02 1.402391e-02 1.165096e-02 1.606269e-03 1.355527e-03 1.523101e-03 2.138632e-03 2.573046e-03 2.848139e-03 3.082366e-03 3.037325e-03 2.714177e-03 2.861267e-03 2.577686e-03 1.960344e-03 1.453249e-03 2.210543e-04
<GCONST> -9.095432e+01
<MIXTURE> 3 7.299381e-02
<MEAN> 39
 -3.118333e-01 -9.567587e-02 -4.156171e-03 8.376455e-02 -2.596775e-03 1.258865e-01 3.644392e-02 1.444819e-01 1.086549e-01 6.504499e-02 7.828896e-02 -3.946550e-02 1.047353e-01 1.034363e-02 2.212724e-02 2.393888e-02 2.122838e-02 9.680470e-03 -1.095381e-02 -2.507467e-02 -3.073940e-02 -2.793891e-02 -1.197030e-02 4.966146e-03 1.657994e-02 -1.166563e-03 9.299824e-03 1.669994e-02 2.088265e-02 1.510094e-02 7.968251e-03 -3.021257e-03 -1.350814e-02 -1.921632e-02 -1.632737e-02 -1.317477e-02 -8.118520e-03 6.891501e-03 1.166235e-03
<VARIANCE> 39
 1.530163e-01 9.824737e-02 9.802979e-02 1.426100e-01 1.182194e-01 1.280122e-01 1.250244e-01 1.224341e-01 1.140190e-01 1.036538e-01 8.747752e-02 7.199918e-02 2.812357e-02 1.431529e-03 3.054608e-03 4.798530e-03 6.628927e-03 8.213198e-03 9.600231e-03 1.119254e-02 1.157423e-02 1.120153e-02 1.055943e-02 9.029849e-03 7.556736e-03 4.573199e-05 3.521041e-04 5.758822e-04 8.855077e-04 1.277544e-03 1.579383e-03 1.805005e-03 1.934540e-03 1.847218e-03 1.929917e-03 1.818278e-03 1.584012e-03 1.320094e-03 1.356026e-05
<GCONST> -1.192200e+02
<MIXTURE> 4 6.145048e-02
<MEAN> 39
 -1.609128e-01 1.249909e-01 1.964464e-01 1.553515e-01 7.335624e-02 1.124692e-01 4.146469e-02 5.321736e-02 -1.618163e-01 -2.975167e-01 -9.990434e-02 1.440138e-01 1.037454e-01 9.546658e-03 2.852070e-02 2.875610e-02 2.890275e-02 1.507600e-02 -1.172449e-02 -3.028751e-02 -4.055674e-02 -3.794451e-02 -1.795220e-02 5.106955e-03 2.063719e-02 -3.301163e-03 -1.609051e-03 -1.037820e-02 -4.250520e-03 -2.282424e-03 -4.434977e-03 -5.579453e-03 -1.499777e-02 -7.855119e-03 2.218257e-02 3.777600e-02 1.444166e-02 -1.994081e-02 4.226112e-03
<VARIANCE> 39
 1.234845e-01 1.004383e-01 1.180565e-01 1.675945e-01 1.495300e-01 1.539190e-01 1.471544e-01 1.446785e-01 1.255621e-01 9.140668e-02 9.343638e-02 7.240131e-02 2.662359e-02 3.004976e-03 5.443719e-03 7.027352e-03 9.300654e-03 1.079496e-02 1.220557e-02 1.398838e-02 1.386336e-02 1.342620e-02 1.246933e-02 1.063537e-02 8.513448e-03 2.797819e-04 6.295156e-04 8.768543e-04 1.229823e-03 1.741923e-03 2.192524e-03 2.303249e-03 2.367182e-03 2.277508e-03 2.084541e-03 1.632708e-03 1.693771e-03 1.315111e-03 6.238154e-05
<GCONST> -1.087489e+02
<MIXTURE> 5 7.581523e-02
<MEAN> 39
 -7.148652e-02 1.897443e-01 2.018234e-01 1.159570e-01 -9.665129e-03 -2.205178e-02 -1.219216e-01 1.339438e-02 2.647342e-02 -3.928231e-02 -7.597356e-02 9.241061e-03 8.791313e-02 4.512673e-03 6.610296e-03 -1.091426e-03 -7.282986e-03 -6.127893e-03 4.311532e-03 1.282919e-02 1.806034e-02 1.347305e-02 4.021974e-04 -1.620600e-02 -1.697945e-02 -3.149996e-04 -3.556979e-03 -8.218051e-03 -4.689016e-03 1.961844e-03 5.655707e-03 1.083031e-02 5.630097e-03 -3.902473e-03 -7.833212e-03 -1.954272e-03 8.354391e-03 -9.390580e-04 1.141940e-03
<VARIANCE> 39
 1.194748e-01 8.109650e-02 8.692785e-02 1.315215e-01 1.190652e-01 1.186251e-01 1.179483e-01 1.164566e-01 1.194906e-01 9.061541e-02 8.753864e-02 6.008896e-02 2.450137e-02 1.239191e-03 2.824714e-03 4.615003e-03 6.391506e-03 8.324839e-03 9.224262e-03 1.059569e-02 1.080893e-02 1.067001e-02 9.879423e-03 8.923827e-03 6.676754e-03 5.559457e-05 2.251720e-04 4.681862e-04 8.063405e-04 1.193466e-03 1.555409e-03 1.701172e-03 1.806663e-03 1.723552e-03 1.833551e-03 1.530053e-03 1.534022e-03 1.072055e-03 1.085282e-05
<GCONST> -1.226613e+02
<MIXTURE> 6 8.411644e-02
<MEAN> 39
 -2.919686e-01 -1.062777e-01 2.060239e-01 2.054998e-01 9.895772e-02 6.080856e-02 -2.993532e-01 -2.592909e-01 -5.134381e-02 1.008366e-01 2.607352e-01 1.499113e-01 1.571663e-01 6.375032e-03 1.705261e-02 1.518418e-02 1.540669e-02 5.467532e-03 -9.500385e-03 -1.940830e-02 -2.237809e-02 -1.953379e-02 -6.871610e-03 4.022974e-03 1.217703e-02 -2.794764e-03 3.817737e-03 3.761966e-03 -2.012414e-03 -6.487384e-03 -6.297160e-03 9.214123e-03 3.090594e-02 3.549964e-02 1.221297e-02 -1.840411e-02 -3.211923e-02 -1.771077e-02 9.393961e-04
<VARIANCE> 39
 1.619798e-01 1.307335e-01 1.367610e-01 1.795168e-01 1.561269e-01 1.748041e-01 1.532681e-01 1.334427e-01 1.552869e-01 1.266085e-01 9.848975e-02 8.809313e-02 3.226186e-02 1.820276e-03 3.711553e-03 5.524867e-03 7.653206e-03 9.446508e-03 1.083758e-02 1.274979e-02 1.277525e-02 1.203082e-02 1.123006e-02 9.876142e-03 8.239726e-03 1.435745e-04 3.832110e-04 6.758388e-04 1.052527e-03 1.441989e-03 1.830069e-03 2.166474e-03 2.113087e-03 1.776251e-03 2.209094e-03 1.992300e-03 1.634928e-03 1.478705e-03 2.763040e-05
<GCONST> -1.118044e+02
<MIXTURE> 7 7.936241e-02
<MEAN> 39
 -3.875124e-01 -2.833065e-01 2.328573e-01 -1.204487e-01 -8.314972e-03 3.034819e-01 1.438870e-02 2.973162e-01 3.967950e-01 -3.113942e-02 -1.176368e-01 -1.099767e-01 2.455527e-01 -3.055392e-04 4.710626e-03 3.077288e-06 2.151347e-03 1.531308e-03 3.245687e-04 -3.954869e-03 -4.010601e-03 -1.212886e-03 8.838269e-04 9.407719e-04 1.190294e-03 -3.768419e-03 7.984446e-03 1.420488e-02 1.001328e-02 2.405278e-02 8.562550e-03 -1.166129e-02 -1.534343e-02 -3.663894e-02 -3.959608e-02 -2.688018e-03 1.871409e-02 1.858835e-02 -1.436339e-03
<VARIANCE> 39
 1.654250e-01 1.576970e-01 2.067127e-01 2.077882e-01 2.006327e-01 2.289651e-01 2.425994e-01 2.059307e-01 1.652328e-01 1.851019e-01 1.299360e-01 1.098261e-01 3.331590e-02 2.387359e-03 4.582392e-03 6.818919e-03 9.343592e-03 1.067917e-02 1.219550e-02 1.456901e-02 1.418823e-02 1.356138e-02 1.238390e-02 1.052243e-02 9.019987e-03 2.899510e-04 4.366244e-04 8.353827e-04 1.370473e-03 1.633800e-03 2.135476e-03 2.573826e-03 2.858069e-03 2.476119e-03 2.463332e-03 2.587418e-03 1.910838e-03 1.637536e-03 3.830214e-05
<GCONST> -1.035589e+02
<MIXTURE> 8 4.631427e-02
<MEAN> 39
 -1.425253e-01 2.563205e-01 2.648417e-01 3.187418e-01 1.007487e-01 1.241768e-02 -1.538897e-01 -1.195505e-01 -1.253463e-01 -8.597974e-02 -7.719073e-02 3.715025e-02 8.940624e-02 -2.229423e-02 -2.685204e-02 -1.151503e-02 -3.004901e-02 -5.067960e-03 1.507094e-02 2.291253e-02 3.003569e-02 2.915971e-02 1.270657e-02 3.565722e-03 -1.358874e-02 3.941882e-03 -7.801732e-03 -2.787228e-02 -1.205850e-02 -2.075710e-02 -9.421485e-03 7.437791e-03 1.211283e-02 1.619491e-02 1.634363e-02 7.487797e-03 1.081303e-02 -5.610124e-03 9.680399e-03
<VARIANCE> 39
 1.382339e-01 1.064634e-01 1.324400e-01 1.907050e-01 1.706769e-01 1.698877e-01 1.724372e-01 1.764413e-01 1.589893e-01 1.283603e-01 1.096099e-01 8.322951e-02 2.613946e-02 2.307582e-02 2.239144e-02 2.152582e-02 2.454874e-02 2.282473e-02 2.298369e-02 2.565002e-02 2.508984e-02 2.344080e-02 1.944203e-02 1.553025e-02 1.223227e-02 2.957344e-03 1.599975e-03 1.621552e-03 2.105598e-03 2.759260e-03 2.960824e-03 2.988015e-03 3.225646e-03 3.180937e-03 3.067716e-03 2.558375e-03 2.165567e-03 1.678038e-03 2.295835e-04
<GCONST> -8.828751e+01
<MIXTURE> 9 8.893300e-02
<MEAN> 39
 -6.932765e-01 -3.999913e-03 -4.921004e-02 3.706233e-01 1.431534e-01 2.868715e-01 1.210826e-01 1.818980e-01 3.261253e-02 2.617826e-02 5.708004e-05 -1.019447e-01 7.283274e-02 -2.246560e-03 -2.364996e-03 -1.318002e-03 1.835945e-03 6.445666e-04 -2.819766e-03 -4.596835e-03 -5.261145e-03 -3.587142e-03 1.664703e-03 6.837546e-03 5.717881e-03 -3.822178e-04 2.762487e-03 5.475336e-03 7.256347e-03 -8.928462e-05 -3.589968e-03 -1.190409e-02 -1.442547e-02 -8.112463e-03 -1.476716e-03 4.994755e-04 2.832885e-03 1.067099e-02 1.039434e-04
<VARIANCE> 39
 2.762401e-01 9.852024e-02 1.211146e-01 1.655550e-01 1.206252e-01 1.292492e-01 1.391654e-01 1.416542e-01 1.224477e-01 1.163764e-01 8.924922e-02 8.370804e-02 2.676068e-02 1.068159e-03 2.353438e-03 3.946781e-03 6.053610e-03 6.833897e-03 8.991722e-03 1.140691e-02 1.142152e-02 1.109641e-02 1.107371e-02 8.460642e-03 8.742931e-03 2.209249e-05 2.192610e-04 4.385685e-04 7.789573e-04 1.204372e-03 1.376108e-03 1.798675e-03 2.113032e-03 2.154055e-03 2.162110e-03 2.188508e-03 1.612342e-03 1.719046e-03 3.038510e-06
<GCONST> -1.211147e+02
<MIXTURE> 10 6.169134e-02
<MEAN> 39
 -1.244258e-01 2.449797e-01 2.038583e-01 2.332623e-01 3.202374e-02 3.838207e-02 -9.803678e-02 2.622060e-02 -3.392503e-02 -3.678969e-02 -7.244582e-02 -6.644846e-02 4.155444e-02 -1.731088e-02 -2.667343e-02 -3.145460e-02 -2.404656e-02 -9.775672e-03 1.317954e-02 2.788593e-02 3.232943e-02 2.954645e-02 1.714941e-02 3.557397e-03 -1.352164e-02 -1.366414e-03 -8.945887e-03 -1.456808e-02 -8.975020e-03 -3.998439e-03 2.080978e-03 7.185832e-03 5.857883e-03 -4.264103e-04 1.530537e-04 -1.410941e-03 7.621582e-03 6.856928e-03 4.051878e-04
<VARIANCE> 39
 1.325871e-01 9.287266e-02 1.020255e-01 1.539470e-01 1.304491e-01 1.285304e-01 1.331269e-01 1.312065e-01 1.276895e-01 9.847049e-02 9.403241e-02 6.639750e-02 2.164090e-02 1.438878e-03 3.174921e-03 5.014506e-03 7.032052e-03 8.687415e-03 9.587975e-03 1.155838e-02 1.191156e-02 1.129435e-02 1.062969e-02 9.112278e-03 7.309185e-03 4.028916e-05 2.816828e-04 5.832196e-04 9.550074e-04 1.338194e-03 1.689998e-03 1.830084e-03 2.027710e-03 1.964035e-03 2.013085e-03 1.695212e-03 1.687957e-03 1.214177e-03 7.022306e-06
<GCONST> -1.197557e+02
<MIXTURE> 11 6.673618e-02
<MEAN> 39
 -1.701611e-01 -9.393471e-02 1.371431e-01 1.940993e-02 -1.076131e-01 1.609335e-01 1.977237e-01 2.700523e-01 2.260063e-01 3.392546e-02 -1.993717e-01 -2.214719e-01 1.721761e-01 -1.184771e-02 -1.181751e-02 -3.106209e-02 -2.695658e-02 -1.055165e-02 1.360803e-02 3.712397e-02 4.904527e-02 3.421497e-02 9.620649e-03 -1.552279e-02 -2.742023e-02 -3.968351e-03 -5.085533e-04 4.742591e-03 6.733185e-03 1.446629e-02 1.533342e-02 -7.623903e-03 -3.061190e-02 -3.636635e-02 -2.861112e-02 -5.844850e-03 2.748082e-02 2.860440e-02 3.328800e-04
<VARIANCE> 39
 1.385824e-01 1.717129e-01 1.769323e-01 2.395066e-01 2.231491e-01 2.327018e-01 2.415714e-01 2.314498e-01 1.826141e-01 1.819344e-01 1.507271e-01 1.103522e-01 2.904616e-02 3.446722e-03 6.687661e-03 8.672697e-03 1.192748e-02 1.323181e-02 1.449972e-02 1.721446e-02 1.720392e-02 1.602476e-02 1.426965e-02 1.270282e-02 1.029054e-02 4.416123e-04 5.298301e-04 9.716730e-04 1.464555e-03 1.968761e-03 2.650113e-03 2.944727e-03 3.225878e-03 2.985626e-03 2.777255e-03 2.759368e-03 2.343535e-03 1.718820e-03 4.981130e-05
<GCONST> -9.834818e+01
<MIXTURE> 12 7.482678e-02
<MEAN> 39
 -2.061916e-01 -3.485725e-02 3.073568e-01 3.861960e-01 1.571515e-01 7.068245e-02 -3.302904e-01 -4.127142e-01 -1.805235e-01 6.066105e-02 1.861867e-01 1.103674e-01 1.433109e-01 -1.001000e-02 -6.588146e-03 -1.791016e-02 -1.320171e-02 -3.151497e-03 8.832596e-03 1.951398e-02 2.620754e-02 1.902802e-02 4.503175e-03 -7.045477e-03 -1.184811e-02 -4.275577e-03 -2.789648e-03 -5.750135e-03 -1.584762e-02 -2.375142e-02 -1.473899e-02 6.379733e-03 3.550219e-02 5.231521e-02 2.601610e-02 -1.164003e-02 -2.294080e-02 -1.436605e-02 6.536733e-04
<VARIANCE> 39
 1.484763e-01 1.477374e-01 1.501441e-01 2.008801e-01 1.785375e-01 1.972688e-01 1.922083e-01 1.614769e-01 1.894245e-01 1.487109e-01 1.130575e-01 1.065875e-01 3.004696e-02 2.096947e-03 4.291908e-03 6.028023e-03 8.312741e-03 1.000229e-02 1.129910e-02 1.356045e-02 1.388982e-02 1.310884e-02 1.204887e-02 1.042459e-02 8.633125e-03 1.850735e-04 3.750466e-04 7.059155e-04 1.137816e-03 1.551469e-03 1.977681e-03 2.363869e-03 2.538130e-03 2.127660e-03 2.624684e-03 2.245077e-03 1.804809e-03 1.750431e-03 2.359303e-05
<GCONST> -1.079596e+02
<MIXTURE> 13 5.982748e-02
<MEAN> 39
 -1.035849e-01 2.284434e-01 3.136058e-01 2.746898e-01 7.491738e-02 1.056270e-01 -2.171963e-02 -2.037169e-02 -2.786783e-01 -4.205552e-01 -1.208798e-01 1.581784e-01 8.084419e-02 -7.191598e-03 6.235045e-04 -4.883329e-03 3.602176e-04 3.501370e-03 8.102524e-04 1.644877e-03 2.123070e-03 1.195229e-04 -2.530165e-04 3.826127e-03 2.184341e-03 -3.575712e-03 -8.506761e-03 -1.991863e-02 -1.781590e-02 -1.177628e-02 -3.720435e-03 -2.711914e-03 -7.528848e-03 1.394353e-03 3.496948e-02 5.154486e-02 1.472875e-02 -2.323808e-02 2.119938e-03
<VARIANCE> 39
 1.178801e-01 1.224811e-01 1.367794e-01 1.977190e-01 1.604625e-01 1.698410e-01 1.705238e-01 1.675786e-01 1.549368e-01 1.062463e-01 1.092039e-01 8.760130e-02 2.399489e-02 2.515742e-03 4.993250e-03 6.668000e-03 8.902577e-03 1.026148e-02 1.173050e-02 1.374764e-02 1.377659e-02 1.367665e-02 1.244805e-02 1.058798e-02 8.249918e-03 1.915051e-04 4.828686e-04 8.170474e-04 1.259251e-03 1.743314e-03 2.149577e-03 2.330212e-03 2.470143e-03 2.450829e-03 2.360565e-03 1.725223e-03 1.856394e-03 1.500777e-03 3.264393e-05
<GCONST> -1.085385e+02
<MIXTURE> 14 5.467992e-02
<MEAN> 39
 -3.844116e-01 -4.054144e-01 4.019558e-01 2.467270e-01 7.480507e-02 2.594860e-01 -2.549006e-01 -1.689186e-01 8.172728e-02 -4.490453e-02 1.880085e-01 1.400066e-01 2.340290e-01 -4.877218e-03 8.512336e-03 -2.684510e-02 -9.930725e-03 -6.925291e-03 2.461789e-03 1.993108e-02 2.438418e-02 7.093870e-03 5.027845e-03 -6.891783e-03 -9.633244e-03 -1.013888e-02 1.181438e-02 3.148679e-02 -1.526834e-02 -3.624103e-03 -2.797925e-03 -1.242433e-02 1.865553e-02 1.775759e-02 -3.483317e-03 1.699707e-03 -2.157155e-02 -1.559596e-02 -4.218449e-03
<VARIANCE> 39
 1.386982e-01 1.640267e-01 2.520457e-01 3.313891e-01 2.636796e-01 3.052988e-01 3.057413e-01 2.669892e-01 2.644956e-01 2.293261e-01 1.570210e-01 1.147399e-01 2.863899e-02 6.826640e-03 1.319351e-02 1.351877e-02 1.696930e-02 1.659509e-02 1.946600e-02 2.158024e-02 2.013307e-02 1.980340e-02 1.679731e-02 1.364992e-02 1.126385e-02 1.224720e-03 1.089413e-03 1.724540e-03 2.696262e-03 3.376114e-03 3.586448e-03 4.130186e-03 4.355831e-03 3.653675e-03 3.986930e-03 3.572894e-03 2.548877e-03 1.932147e-03 1.716153e-04
<GCONST> -8.596407e+01
<MIXTURE> 15 5.272621e-02
<MEAN> 39
 -2.386823e-01 -4.671531e-02 -6.091297e-02 2.207450e-01 3.568139e-02 1.115242e-01 1.445043e-01 1.554412e-01 4.140412e-02 1.804654e-01 2.280010e-02 -2.379656e-01 8.662675e-02 -1.774164e-02 4.035587e-04 -1.649870e-02 -7.815654e-03 1.670935e-03 5.007701e-04 7.067147e-03 1.040913e-02 3.162447e-03 3.824594e-03 8.228260e-03 3.964674e-03 -6.453594e-03 5.350560e-03 1.132093e-02 2.971409e-02 1.718851e-03 3.695029e-04 -8.059531e-03 -2.855029e-02 -2.452884e-02 -1.145794e-02 -2.894786e-02 -8.592826e-04 3.495734e-02 7.448020e-03
<VARIANCE> 39
 1.390273e-01 1.523159e-01 1.244148e-01 2.010986e-01 1.640621e-01 1.586314e-01 1.539286e-01 1.486186e-01 1.368530e-01 1.144935e-01 1.048073e-01 6.687652e-02 2.323484e-02 7.674609e-03 1.143240e-02 1.098216e-02 1.409966e-02 1.437385e-02 1.524165e-02 1.705516e-02 1.661279e-02 1.624762e-02 1.427445e-02 1.201211e-02 9.661365e-03 8.576398e-04 1.672748e-03 2.058692e-03 1.866937e-03 2.781727e-03 2.820343e-03 2.897284e-03 2.923328e-03 2.748403e-03 2.796894e-03 2.307804e-03 2.111610e-03 1.345882e-03 1.637244e-04
<GCONST> -9.700467e+01
<MIXTURE> 16 3.680683e-02
<MEAN> 39
 1.487794e-01 4.330410e-01 5.005116e-01 2.664287e-01 -1.052266e-02 -1.691470e-01 -3.472940e-01 -3.117972e-01 -2.467095e-01 -1.840084e-01 -1.090692e-01 7.845333e-02 1.925283e-01 -2.666767e-02 4.726942e-03 -3.129366e-03 1.856074e-02 1.411120e-02 1.024386e-02 6.258827e-03 5.789981e-03 -3.697356e-03 -4.591127e-03 -1.256511e-03 -1.058934e-03 -1.392496e-02 -3.337356e-02 -4.441714e-02 -3.906173e-02 -1.343255e-02 3.635205e-03 2.631862e-02 3.377024e-02 3.584311e-02 2.754175e-02 1.838254e-02 1.136615e-02 -1.098617e-02 -1.720431e-03
<VARIANCE> 39
 1.594891e-01 1.668702e-01 1.709572e-01 2.718829e-01 2.525885e-01 2.255785e-01 2.241546e-01 2.287809e-01 2.301553e-01 1.919341e-01 1.607684e-01 1.213215e-01 3.240184e-02 1.306760e-02 1.231355e-02 1.204449e-02 1.466551e-02 1.515594e-02 1.617479e-02 1.782716e-02 1.878385e-02 1.797203e-02 1.530344e-02 1.251498e-02 9.495277e-03 1.227839e-03 2.192268e-03 1.814964e-03 2.313180e-03 3.562902e-03 3.776689e-03 3.481551e-03 3.691086e-03 3.822132e-03 4.007006e-03 3.401243e-03 2.787784e-03 2.203180e-03 2.350467e-04
<GCONST> -8.707821e+01
~h "%"
<BEGINHMM>
<NUMSTATES> 5
<STATE> 2
<NUMMIXES> 16
<MIXTURE> 1 2.987295e-02
<MEAN> 39
 1.274706e-01 2.713577e-01 -2.002924e-01 -1.051582e+00 -4.103390e-01 1.440196e-01 2.712905e-01 9.508072e-01 9.335577e-01 1.519889e-01 -2.889254e-01 -6.142100e-01 6.998111e-01 1.770751e-01 -1.911435e-01 -1.368769e-01 -2.109053e-01 -1.672186e-01 7.110772e-02 4.236476e-02 1.440739e-01 2.557048e-01 1.834178e-01 2.264189e-02 -1.540460e-01 9.965514e-02 -6.167977e-02 -1.296606e-02 4.042191e-02 7.982069e-02 4.416207e-02 -2.857824e-03 -4.253026e-02 -9.419617e-02 -7.828107e-02 8.957076e-03 6.879732e-02 6.382233e-02 -1.630070e-02
<VARIANCE> 39
 1.415518e-01 2.689213e-01 2.209231e-01 2.917802e-01 2.808461e-01 2.581528e-01 2.609436e-01 2.942614e-01 2.610165e-01 4.115665e-01 3.327500e-01 1.712049e-01 1.423937e-02 2.165275e-02 2.680296e-02 2.680891e-02 4.532775e-02 3.973366e-02 4.106918e-02 3.664440e-02 5.097328e-02 3.685142e-02 4.735318e-02 5.753286e-02 3.954751e-02 2.945190e-03 2.544866e-03 3.379847e-03 3.422158e-03 4.968590e-03 4.855991e-03 5.084845e-03 4.673396e-03 5.845348e-03 6.177349e-03 6.727702e-03 4.926192e-03 3.754297e-03 4.618041e-04
<GCONST> -6.643122e+01
<MIXTURE> 2 7.101254e-02
<MEAN> 39
 3.038611e-01 2.456001e-01 4.278364e-01 -4.724272e-01 -6.314998e-01 1.440349e-01 1.799542e-01 -1.638038e-01 3.836050e-01 -2.160405e-02 -2.973330e-01 -1.208455e-01 6.779559e-01 6.465121e-02 -1.044253e-01 -4.511055e-02 -6.946027e-02 -1.046854e-01 2.280921e-02 9.166675e-02 1.694400e-02 6.849002e-02 3.193703e-02 -1.617675e-02 -8.895887e-03 3.765580e-02 -6.190310e-03 -2.695299e-03 -4.097339e-03 6.333370e-03 7.851522e-03 -5.838160e-03 4.995765e-03 2.780133e-03 -1.218975e-02 3.122139e-04 9.221904e-03 2.728332e-03 1.991029e-03
<VARIANCE> 39
 1.099319e-01 1.390435e-01 1.628448e-01 2.185429e-01 1.993639e-01 1.874872e-01 1.931292e-01 1.570713e-01 1.656773e-01 1.482396e-01 1.121530e-01 9.800536e-02 1.106811e-02 7.824019e-03 1.077204e-02 1.064878e-02 1.476131e-02 1.683618e-02 1.707882e-02 1.775599e-02 1.494544e-02 1.848292e-02 1.328948e-02 1.139606e-02 9.209190e-03 5.411190e-04 7.326083e-04 1.000716e-03 1.297672e-03 1.502342e-03 1.945683e-03 2.062364e-03 2.108317e-03 2.011738e-03 2.114817e-03 1.849320e-03 1.500788e-03 1.189376e-03 5.146346e-05
<GCONST> -1.024990e+02
<MIXTURE> 3 4.886202e-02
<MEAN> 39
 3.512678e-01 2.251121e-01 6.751354e-02 -5.763271e-02 -4.068593e-01 -1.107415e-01 2.117976e-01 7.941754e-02 3.011132e-03 -4.940587e-02 -6.264567e-02 -1.433375e-01 6.409004e-01 3.626386e-01 -2.004410e-02 -1.156688e-01 -9.205368e-02 -2.191087e-01 -1.762065e-01 1.624999e-01 7.591008e-02 -3.623025e-02 5.832779e-02 -4.500854e-02 -4.790304e-02 1.143525e-01 -5.591364e-02 -2.553082e-02 -2.816070e-03 4.603202e-03 1.578386e-02 -2.258847e-03 1.199752e-02 2.514352e-03 2.467696e-03 1.143676e-02 8.187191e-03 1.084295e-02 -7.783383e-03
<VARIANCE> 39
 1.160903e-01 1.169087e-01 1.543250e-01 1.721132e-01 1.266405e-01 1.965892e-01 1.436005e-01 2.033374e-01 1.083234e-01 1.058119e-01 9.439582e-02 6.611466e-02 1.370026e-02 2.679461e-02 2.681137e-02 3.099655e-02 3.815104e-02 2.793999e-02 3.347885e-02 3.381534e-02 3.451446e-02 2.155026e-02 2.175427e-02 1.801192e-02 1.271769e-02 3.759780e-03 1.794644e-03 1.790765e-03 2.349173e-03 2.568207e-03 2.334170e-03 3.388926e-03 3.026431e-03 3.567967e-03 2.577120e-03 2.228366e-03 1.830624e-03 1.447493e-03 2.587025e-04
<GCONST> -8.766789e+01
<MIXTURE> 4 8.584320e-02
<MEAN> 39
 -1.028863e-01 6.902620e-01 2.568879e-01 -8.660242e-02 -2.478936e-01 1.050901e-01 -6.230036e-02 -5.612991e-02 8.999586e-02 -1.283390e-01 -1.781338e-01 -1.718745e-02 5.375189e-01 3.798958e-01 5.190959e-03 1.116732e-02 -2.709518e-01 -2.305679e-01 -7.667078e-02 4.861796e-02 1.095675e-02 9.888993e-02 1.051951e-02 -8.261712e-02 -1.505432e-02 1.035261e-01 -1.484804e-02 -5.095459e-02 -7.777828e-03 -2.655402e-02 -4.032209e-03 -2.597052e-03 1.789895e-02 4.386762e-03 2.070578e-02 9.443429e-03 1.539578e-02 6.297904e-03 5.564876e-03
<VARIANCE> 39
 1.629806e-01 1.570796e-01 1.659892e-01 2.574737e-01 2.096686e-01 1.653903e-01 1.543384e-01 1.623464e-01 1.503509e-01 1.306477e-01 1.127533e-01 7.767076e-02 1.774016e-02 2.378717e-02 2.577230e-02 2.301270e-02 3.520083e-02 2.566027e-02 3.021865e-02 3.846190e-02 3.064553e-02 3.052821e-02 3.236484e-02 2.385117e-02 1.937499e-02 4.637423e-03 2.013043e-03 2.132478e-03 2.395919e-03 3.336015e-03 3.212133e-03 3.169290e-03 3.170670e-03 2.906551e-03 3.149675e-03 3.167608e-03 2.405570e-03 1.965074e-03 1.814178e-04
<GCONST> -8.286002e+01
<MIXTURE> 5 4.733026e-02
<MEAN> 39
 4.887105e-01 -1.689572e-02 1.415066e-01 -2.749418e-01 -8.691670e-01 -2.143244e-01 7.626893e-01 -4.875254e-02 3.678174e-02 3.813924e-01 -2.114004e-01 -3.320888e-01 7.308163e-01 1.817417e-01 -1.257742e-01 -8.575497e-02 -7.282966e-02 -1.775341e-01 -6.622431e-02 1.991233e-01 4.420352e-02 1.359197e-02 9.945613e-02 -4.111923e-02 -4.786732e-02 7.261224e-02 -8.461490e-02 1.327606e-02 6.406222e-03 2.663899e-02 7.553011e-02 2.597018e-02 -6.282125e-02 -3.795771e-04 1.971354e-03 -4.573893e-02 2.217014e-02 4.049946e-02 -1.970831e-02
<VARIANCE> 39
 9.070341e-02 1.142875e-01 1.307288e-01 1.906475e-01 1.886934e-01 2.276081e-01 1.799146e-01 1.601966e-01 1.499043e-01 1.399879e-01 1.332982e-01 7.222752e-02 1.127949e-02 2.025228e-02 1.850330e-02 2.123838e-02 2.385075e-02 2.486240e-02 2.859106e-02 2.746628e-02 2.697365e-02 2.751584e-02 1.929596e-02 1.823314e-02 1.396709e-02 1.490506e-03 3.018631e-03 1.970220e-03 2.155506e-03 2.941759e-03 3.335486e-03 4.017356e-03 3.223062e-03 3.193275e-03 3.054393e-03 2.578567e-03 2.543936e-03 1.526794e-03 2.844033e-04
<GCONST> -8.761003e+01
<MIXTURE> 6 8.354526e-02
<MEAN> 39
 2.058201e-01 1.404383e-01 1.144656e-01 -9.092610e-01 -3.460132e-01 9.795508e-03 -1.703807e-01 9.139288e-02 1.828755e-01 -1.132232e-01 2.766387e-01 2.434442e-01 7.529325e-01 1.713037e-03 -4.427809e-02 -1.929604e-02 -2.426722e-02 1.325603e-02 5.285896e-02 9.431808e-03 1.564205e-02 -3.899463e-03 -1.163605e-02 1.334975e-02 -5.940162e-03 1.223910e-02 3.465900e-03 8.944523e-03 1.258356e-03 1.769739e-02 3.543594e-04 -6.763210e-03 5.492381e-03 -5.572812e-03 -2.858524e-03 -5.685243e-04 -2.159314e-02 -6.852272e-03 -3.020705e-03
<VARIANCE> 39
 1.456268e-01 3.361996e-01 2.490477e-01 3.925313e-01 3.581354e-01 3.765476e-01 3.885958e-01 3.341386e-01 3.423020e-01 4.000725e-01 3.003468e-01 3.189468e-01 1.202285e-02 4.494268e-03 1.216177e-02 1.134284e-02 1.218482e-02 1.610427e-02 1.789976e-02 2.004129e-02 1.820492e-02 2.002180e-02 2.022839e-02 1.519081e-02 1.358055e-02 3.977631e-04 7.272753e-04 1.588842e-03 1.917763e-03 2.129077e-03 2.885724e-03 3.247376e-03 3.156492e-03 3.121824e-03 3.186743e-03 3.328216e-03 2.604246e-03 2.381696e-03 5.605672e-05
<GCONST> -8.777959e+01
<MIXTURE> 7 1.010006e-01
<MEAN> 39
 3.673092e-01 2.795425e-01 3.772904e-01 -7.662495e-01 -7.181245e-01 2.524741e-01 1.723195e-01 -1.908788e-01 5.648614e-01 -5.275301e-02 -4.598446e-01 6.446582e-04 7.067431e-01 2.357046e-01 -1.024677e-01 -5.401308e-02 -1.554157e-01 -1.819294e-01 2.261975e-02 1.124400e-01 1.172599e-03 1.244052e-01 3.397554e-02 -7.117477e-02 -3.370703e-02 6.799847e-02 -8.748320e-02 -1.231761e-02 -6.886424e-03 6.417266e-02 6.114485e-02 -4.805978e-03 -6.987862e-03 1.400886e-02 -4.350734e-02 3.223537e-05 4.928885e-02 1.517535e-03 -1.502014e-02
<VARIANCE> 39
 1.130276e-01 1.357562e-01 1.329950e-01 1.574273e-01 1.976311e-01 1.711144e-01 1.640432e-01 1.472726e-01 1.375008e-01 1.520952e-01 1.068036e-01 8.864021e-02 1.238146e-02 2.257715e-02 2.190195e-02 2.230509e-02 2.803741e-02 2.557545e-02 2.784666e-02 2.761374e-02 2.258730e-02 2.507997e-02 1.862171e-02 1.702632e-02 1.552861e-02 1.679947e-03 2.062530e-03 2.394526e-03 2.098999e-03 2.559633e-03 3.098138e-03 3.172526e-03 2.863876e-03 2.952196e-03 2.706010e-03 2.359994e-03 1.909996e-03 1.599739e-03 2.536396e-04
<GCONST> -8.881016e+01
<MIXTURE> 8 5.896787e-02
<MEAN> 39
 1.220171e-01 2.480656e-01 8.554565e-02 -1.060782e+00 -4.263909e-01 6.392530e-02 -4.314150e-01 -1.707026e-01 3.470773e-01 3.910013e-02 3.787208e-01 5.276256e-01 6.960133e-01 2.108740e-01 -2.128934e-01 -1.355441e-01 -9.225664e-02 -1.099051e-01 9.205463e-02 -2.539612e-02 -5.866550e-02 -6.732917e-03 -6.429275e-03 4.822332e-02 6.977876e-02 6.154000e-02 -5.267876e-02 4.149861e-04 2.306207e-02 7.137445e-02 3.780820e-02 8.895101e-03 3.560398e-02 1.239559e-02 -4.687263e-02 -3.498355e-02 -2.886904e-02 -3.006345e-02 -6.419425e-03
<VARIANCE> 39
 9.460045e-02 1.725512e-01 1.959307e-01 2.343955e-01 2.231245e-01 2.054142e-01 2.005164e-01 2.079652e-01 2.071002e-01 2.409357e-01 1.639299e-01 1.113792e-01 9.184691e-03 2.714588e-02 2.032399e-02 2.758602e-02 3.185399e-02 3.519921e-02 3.611318e-02 3.534694e-02 2.750988e-02 2.677562e-02 3.291006e-02 2.480563e-02 2.358733e-02 1.160707e-03 1.937752e-03 2.687769e-03 2.655873e-03 3.090309e-03 3.552621e-03 4.308139e-03 3.993637e-03 3.774334e-03 3.807510e-03 4.144597e-03 2.539467e-03 2.554892e-03 1.545929e-04
<GCONST> -8.069225e+01
<MIXTURE> 9 8.039913e-02
<MEAN> 39
 4.258809e-01 4.132434e-01 2.130797e-01 -1.173312e+00 -5.625319e-01 2.773183e-01 -2.527819e-02 2.811121e-01 3.435429e-01 -6.477698e-01 -3.375806e-01 5.745947e-02 7.120609e-01 2.360774e-01 -9.791871e-02 -6.153014e-02 -1.917635e-01 -1.613311e-01 1.077633e-01 1.091799e-01 1.282340e-01 1.376615e-01 -8.534760e-02 -1.437994e-01 -1.358697e-01 7.551417e-02 -9.824843e-02 -1.243503e-02 1.067537e-02 1.022648e-01 7.113630e-02 -9.111930e-03 9.643638e-03 -1.574675e-02 -2.245008e-02 5.823952e-02 2.741641e-02 -2.205134e-02 -2.133222e-02
<VARIANCE> 39
 1.057993e-01 1.815469e-01 1.878798e-01 2.161785e-01 2.234834e-01 2.533371e-01 2.064286e-01 2.320469e-01 1.777084e-01 1.573961e-01 1.316258e-01 1.682953e-01 1.280877e-02 2.347670e-02 2.399611e-02 2.508534e-02 3.928116e-02 2.994174e-02 3.278860e-02 2.935961e-02 3.051749e-02 2.403387e-02 2.429524e-02 2.190788e-02 2.179423e-02 2.259695e-03 2.229853e-03 2.961222e-03 3.393954e-03 4.027645e-03 3.607724e-03 5.057878e-03 3.950111e-03 4.399638e-03 3.805242e-03 2.850500e-03 2.699477e-03 2.900782e-03 4.147336e-04
<GCONST> -7.864316e+01
<MIXTURE> 10 7.627673e-02
<MEAN> 39
 2.455978e-01 3.940780e-01 3.838300e-01 -6.521860e-01 -5.642823e-01 -9.786802e-02 2.252063e-01 -9.386510e-02 3.958447e-01 -4.037034e-02 -3.888424e-01 -1.480722e-02 6.689515e-01 6.022008e-02 -7.537214e-02 -3.866675e-02 -5.382149e-02 -6.676754e-02 2.506674e-02 6.807169e-02 4.028615e-02 4.746232e-02 1.700437e-02 -2.866266e-02 -2.841577e-02 2.586055e-02 -4.676459e-03 -7.264051e-03 -4.235804e-03 1.805224e-02 5.972614e-03 1.165555e-02 -6.826691e-03 1.868089e-03 -1.660907e-02 -2.838260e-03 1.918505e-02 -2.874864e-03 2.381268e-04
<VARIANCE> 39
 1.124473e-01 1.875304e-01 1.944611e-01 2.807932e-01 2.098958e-01 2.110394e-01 2.567069e-01 2.126737e-01 2.010373e-01 2.337283e-01 1.434037e-01 1.368572e-01 1.607369e-02 6.813735e-03 9.230505e-03 9.031830e-03 1.211445e-02 1.420214e-02 1.442691e-02 1.519283e-02 1.439091e-02 1.330929e-02 1.149193e-02 1.018642e-02 9.230542e-03 4.511759e-04 7.429926e-04 9.728054e-04 1.349507e-03 1.516011e-03 1.886202e-03 1.857025e-03 2.086542e-03 2.106190e-03 1.952714e-03 1.908561e-03 1.564645e-03 1.250976e-03 4.804151e-05
<GCONST> -1.014343e+02
<MIXTURE> 11 7.756156e-02
<MEAN> 39
 -2.846201e-01 7.888682e-01 4.130497e-01 -6.414033e-01 -1.148325e-01 -2.941760e-01 -2.734815e-01 -1.108793e-01 -2.309453e-02 -2.475143e-01 1.396006e-01 4.058744e-01 5.492256e-01 3.578522e-01 -3.774556e-02 -8.839654e-02 -2.528403e-01 -2.385986e-01 1.284931e-02 4.982247e-03 5.103791e-02 8.029024e-02 -8.078339e-02 -9.523730e-02 -8.591491e-03 6.289266e-02 2.271263e-03 -5.025890e-02 -1.574092e-02 4.614822e-03 1.816244e-03 6.204438e-02 3.743425e-02 3.868626e-02 3.091278e-02 -9.151759e-03 -3.554678e-02 -5.736477e-02 9.988055e-03
<VARIANCE> 39
 1.807483e-01 1.687196e-01 2.336746e-01 3.278566e-01 2.834820e-01 2.158417e-01 2.139267e-01 2.000303e-01 1.637621e-01 1.994277e-01 1.623095e-01 1.179867e-01 1.558742e-02 1.634844e-02 2.314908e-02 2.192944e-02 2.177506e-02 2.496855e-02 2.985425e-02 3.156167e-02 3.242585e-02 2.498640e-02 2.363965e-02 2.371950e-02 2.417580e-02 1.931082e-03 2.300761e-03 2.068234e-03 2.456742e-03 3.761514e-03 4.020805e-03 3.433822e-03 3.998036e-03 4.076717e-03 3.628215e-03 4.161099e-03 3.112738e-03 2.710218e-03 1.170459e-04
<GCONST> -8.052499e+01
<MIXTURE> 12 5.431243e-02
<MEAN> 39
 -2.550018e-01 2.038813e-01 2.201904e-01 -2.223623e-01 -2.210749e-02 8.721551e-02 -2.754296e-02 -3.521288e-02 5.839944e-02 -1.125626e-01 4.723724e-02 7.598766e-02 5.458927e-01 1.709360e-02 1.042094e-02 2.053828e-03 5.354496e-03 -2.009297e-02 -1.425712e-02 3.307102e-04 -3.006296e-03 -5.220887e-03 -2.315517e-03 -3.647664e-03 3.029409e-03 -8.401272e-03 2.522076e-02 5.092151e-03 7.849392e-03 1.341742e-03 -1.689193e-02 -1.209092e-02 2.106142e-03 9.352944e-04 1.249017e-03 1.306323e-03 -8.398528e-03 -8.195090e-03 -1.054191e-03
<VARIANCE> 39
 4.752094e-01 2.933834e-01 3.164341e-01 4.279879e-01 3.118165e-01 3.131976e-01 3.243724e-01 2.439430e-01 2.089535e-01 1.852590e-01 1.505565e-01 1.241022e-01 5.589392e-02 1.215653e-02 1.546868e-02 1.673130e-02 1.772832e-02 1.756242e-02 1.848270e-02 2.054083e-02 1.974963e-02 1.760613e-02 1.549119e-02 1.322693e-02 1.092508e-02 1.133193e-03 3.154915e-03 2.662404e-03 3.776508e-03 4.743287e-03 4.020520e-03 3.989972e-03 4.573704e-03 3.718288e-03 3.414582e-03 3.214753e-03 2.706632e-03 1.988356e-03 2.887668e-04
<GCONST> -7.998964e+01
<MIXTURE> 13 5.439334e-02
<MEAN> 39
 3.475013e-01 2.910264e-01 -9.432019e-02 -1.084883e+00 -4.481686e-01 1.632862e-01 -4.454325e-01 -6.212043e-02 8.254614e-02 -4.084762e-01 3.620494e-01 5.402702e-01 6.993991e-01 2.062802e-01 -1.296415e-01 -8.707958e-02 -2.010588e-01 -9.330964e-02 1.195901e-01 -4.052791e-02 -5.076102e-02 -2.447589e-02 -1.572578e-01 -8.507314e-03 9.334248e-02 8.158492e-02 -9.296741e-02 -7.567807e-03 3.106835e-02 9.390920e-02 5.716166e-02 1.142348e-02 5.358138e-02 1.791353e-02 -7.525949e-03 1.136853e-02 -4.509249e-02 -5.706067e-02 -2.222061e-02
<VARIANCE> 39
 1.084073e-01 1.578421e-01 1.305920e-01 2.095936e-01 1.943513e-01 2.095423e-01 1.739876e-01 1.918574e-01 1.519751e-01 1.952736e-01 1.308147e-01 1.179888e-01 1.342319e-02 2.283396e-02 2.040944e-02 2.033191e-02 3.266981e-02 2.967057e-02 2.947196e-02 2.858963e-02 2.752960e-02 2.330660e-02 2.479157e-02 2.252832e-02 2.211942e-02 2.032357e-03 1.526951e-03 2.902862e-03 2.501934e-03 3.224343e-03 3.084683e-03 3.871404e-03 3.531541e-03 3.664284e-03 3.603339e-03 3.965864e-03 2.337211e-03 2.539308e-03 3.244408e-04
<GCONST> -8.289426e+01
<MIXTURE> 14 4.712613e-02
<MEAN> 39
 4.729257e-01 2.902837e-01 7.950418e-02 -7.391097e-02 -7.225669e-01 -4.959364e-01 4.938678e-01 1.368748e-01 -1.492620e-01 1.388885e-01 -1.069045e-01 -1.766878e-01 6.395935e-01 2.786740e-01 -5.494055e-02 -8.387609e-02 -1.044077e-01 -2.322479e-01 -1.870537e-01 2.199799e-01 9.236444e-02 -2.765313e-02 1.081835e-01 -4.631776e-02 -6.439745e-02 9.470899e-02 -8.094985e-02 -3.094032e-02 -4.307786e-03 3.717838e-03 4.813947e-02 5.373614e-02 -1.490182e-02 -1.306633e-02 2.640350e-02 4.142853e-04 6.920016e-03 1.023764e-02 -1.242945e-02
<VARIANCE> 39
 1.016679e-01 1.059354e-01 1.257011e-01 1.577242e-01 1.294369e-01 1.762423e-01 1.560758e-01 2.052302e-01 1.108782e-01 1.209802e-01 1.055213e-01 8.645323e-02 1.700911e-02 1.941543e-02 1.954933e-02 2.004160e-02 1.972176e-02 2.433803e-02 2.922053e-02 2.471767e-02 2.590294e-02 1.944519e-02 2.217234e-02 1.585440e-02 1.353362e-02 1.586911e-03 2.241392e-03 1.582611e-03 1.900552e-03 2.131327e-03 2.475784e-03 3.161097e-03 2.900485e-03 3.314154e-03 2.308892e-03 2.329216e-03 1.910131e-03 1.813098e-03 2.767921e-04
<GCONST> -9.121028e+01
<MIXTURE> 15 4.677238e-02
<MEAN> 39
 6.220617e-03 6.014127e-01 1.174479e-01 -1.074058e+00 -4.704790e-01 -2.799393e-01 -2.036119e-01 5.388780e-01 8.073900e-01 2.646416e-01 2.426672e-01 -1.278632e-01 6.571223e-01 1.746019e-01 -1.130767e-01 -7.059266e-02 -1.980276e-01 -1.324096e-01 -2.612079e-03 -8.328997e-02 -4.993645e-04 8.045186e-02 6.126312e-02 1.251252e-01 8.083249e-02 6.565212e-02 -4.072807e-02 -3.671179e-02 6.629176e-03 7.510212e-02 5.168188e-02 4.399827e-02 6.301074e-03 -7.009297e-02 -9.255055e-02 -4.393854e-02 6.654800e-03 4.405705e-02 -8.907173e-03
<VARIANCE> 39
 1.714425e-01 2.151103e-01 2.499549e-01 3.148321e-01 2.405624e-01 2.389909e-01 2.424143e-01 2.331153e-01 2.633457e-01 2.981135e-01 2.585800e-01 1.060672e-01 2.015024e-02 2.912613e-02 2.783508e-02 2.477450e-02 3.847107e-02 3.461713e-02 3.416823e-02 3.083510e-02 3.471525e-02 3.536119e-02 3.179607e-02 2.834269e-02 2.464794e-02 2.489326e-03 2.992373e-03 3.100044e-03 3.382831e-03 5.308340e-03 4.356113e-03 4.508959e-03 4.529482e-03 3.854817e-03 4.558774e-03 5.958993e-03 4.108055e-03 2.359980e-03 3.692017e-04
<GCONST> -7.191614e+01
<MIXTURE> 16 3.671788e-02
<MEAN> 39
 5.062315e-01 -8.224884e-02 1.625554e-01 -2.972699e-01 -7.375895e-01 -1.365538e-01 5.572463e-01 1.784350e-01 -1.543334e-01 1.487449e-01 5.781722e-03 -3.181759e-01 7.017103e-01 2.428141e-01 -9.203269e-02 -1.376413e-01 -3.090602e-02 -1.278147e-01 -1.099139e-01 1.237443e-01 1.073755e-01 -2.619630e-02 1.735287e-02 -8.135644e-03 -4.628793e-02 6.842650e-02 -8.248686e-02 1.959329e-02 2.598822e-03 3.652136e-02 7.593635e-02 6.204474e-03 -5.773268e-02 -1.365614e-02 2.015561e-02 -2.643232e-02 -1.422903e-03 3.957231e-02 -2.247555e-02
<VARIANCE> 39
 1.630107e-01 1.707909e-01 2.735968e-01 2.336311e-01 2.728377e-01 2.491440e-01 1.893979e-01 2.171185e-01 1.607110e-01 1.507316e-01 1.376974e-01 9.264380e-02 2.273346e-02 3.443018e-02 2.642926e-02 3.674949e-02 3.266656e-02 3.170477e-02 3.292124e-02 3.307490e-02 3.337903e-02 2.524247e-02 2.203108e-02 1.894553e-02 1.556084e-02 3.468942e-03 4.706753e-03 3.405062e-03 4.662932e-03 4.295727e-03 4.995654e-03 5.092581e-03 4.311503e-03 4.692023e-03 3.619033e-03 3.110335e-03 3.083591e-03 1.849887e-03 6.161623e-04
<GCONST> -7.519637e+01
<STATE> 3
<NUMMIXES> 16
<MIXTURE> 1 8.238553e-02
<MEAN> 39
 3.983548e-01 8.411231e-02 3.436156e-01 -8.419656e-01 -9.468140e-01 4.169675e-01 2.911677e-01 1.483029e-01 7.410069e-01 -2.337192e-01 -4.168220e-01 -2.455446e-01 8.088477e-01 -3.839112e-03 -4.196553e-02 -3.555412e-02 -2.282141e-03 -2.482154e-03 4.688834e-02 3.154606e-02 2.121307e-02 7.881518e-03 1.730186e-02 1.664645e-02 -2.413560e-02 1.283558e-02 -5.900355e-03 5.747647e-03 -2.557680e-03 1.147311e-02 2.597857e-02 -8.142347e-03 -9.151088e-03 -1.641884e-02 -3.054191e-02 7.906833e-03 1.434396e-02 1.573285e-02 -5.094696e-03
<VARIANCE> 39
 9.879118e-02 1.321728e-01 1.703417e-01 2.024643e-01 2.081238e-01 2.471963e-01 2.616317e-01 2.075118e-01 2.135709e-01 2.213220e-01 1.820564e-01 1.415252e-01 8.650950e-03 2.352572e-03 5.614718e-03 6.667277e-03 7.111371e-03 1.133029e-02 1.069129e-02 1.140088e-02 1.204146e-02 1.162773e-02 1.013980e-02 1.055453e-02 8.610494e-03 2.238586e-04 4.075020e-04 7.132918e-04 9.479657e-04 1.096288e-03 1.600995e-03 1.607419e-03 1.911305e-03 1.719263e-03 1.927637e-03 1.618906e-03 1.759314e-03 1.400503e-03 2.963856e-05
<GCONST> -1.095709e+02
<MIXTURE> 2 7.456674e-02
<MEAN> 39
 1.084695e-01 -3.511921e-01 5.675802e-03 -7.852344e-01 -1.044558e-01 8.229983e-01 -1.406282e-01 1.322431e-01 4.340591e-01 3.666498e-02 7.663056e-02 -1.741286e-01 8.475906e-01 -9.930764e-03 -6.102667e-02 -1.369887e-02 6.773820e-02 6.661990e-02 1.860070e-02 -2.123070e-02 -9.572034e-02 -4.862727e-02 6.588297e-02 5.614891e-02 2.630841e-02 -1.098669e-04 5.295523e-03 1.103926e-02 3.270251e-03 2.461950e-03 -1.411479e-02 -2.278077e-02 9.717593e-03 -4.569878e-03 -6.395368e-03 -1.032139e-02 -5.399172e-03 1.440500e-02 -2.893267e-03
<VARIANCE> 39
 1.145076e-01 1.979953e-01 1.521879e-01 3.118137e-01 3.453459e-01 2.865142e-01 3.676107e-01 4.215162e-01 3.997798e-01 4.253962e-01 3.635112e-01 3.334958e-01 7.254983e-03 2.764067e-03 7.272976e-03 5.547569e-03 1.174464e-02 1.173571e-02 1.242766e-02 1.455153e-02 1.749986e-02 1.869954e-02 1.678417e-02 1.587298e-02 1.703214e-02 2.108147e-04 4.016037e-04 8.779796e-04 9.793695e-04 1.264881e-03 1.416800e-03 1.928515e-03 1.978902e-03 2.081753e-03 2.787156e-03 2.369643e-03 2.266835e-03 2.366717e-03 3.025240e-05
<GCONST> -9.859052e+01
<MIXTURE> 3 7.598136e-02
<MEAN> 39
 5.176429e-01 -1.452133e-02 4.916421e-02 -2.803727e-01 -8.563085e-01 -2.540349e-01 7.554224e-01 -7.621991e-02 9.886654e-02 3.462784e-01 -2.397358e-01 -2.171184e-01 7.606288e-01 3.925779e-02 -7.913299e-02 -5.937049e-02 -1.659761e-02 -4.285552e-02 -1.174440e-02 9.507801e-02 2.257979e-02 -4.330570e-03 2.816809e-02 -6.909858e-03 4.555705e-03 3.220643e-02 -4.966807e-02 2.642217e-02 1.626006e-02 1.934359e-02 5.397816e-02 2.161801e-02 -5.636997e-02 3.084650e-03 -6.599694e-03 -4.030688e-02 1.698188e-02 1.803690e-02 -1.577100e-02
<VARIANCE> 39
 9.183345e-02 1.202734e-01 1.616798e-01 1.895642e-01 1.720363e-01 2.219235e-01 1.849222e-01 2.077534e-01 1.578227e-01 1.699242e-01 1.422111e-01 1.047850e-01 1.194066e-02 7.700521e-03 1.013602e-02 1.395289e-02 1.634902e-02 1.467448e-02 2.070180e-02 1.683302e-02 1.788940e-02 1.697513e-02 1.403560e-02 1.273892e-02 1.004263e-02 4.899785e-04 1.977553e-03 1.745054e-03 2.207745e-03 2.547152e-03 2.662691e-03 2.918528e-03 2.674631e-03 2.729272e-03 2.205314e-03 2.455941e-03 1.975960e-03 1.662009e-03 1.117062e-04
<GCONST> -9.617982e+01
<MIXTURE> 4 3.959139e-02
<MEAN> 39
 5.668071e-02 -3.729383e-01 -2.357018e-01 -8.180410e-01 -3.768092e-01 5.018520e-01 2.265298e-01 8.622601e-01 1.210864e+00 5.671321e-01 -3.030036e-01 -9.850184e-01 8.288347e-01 9.020999e-03 -4.946302e-02 -1.301610e-02 5.454465e-02 -5.165823e-03 -2.000964e-02 -3.287495e-02 -6.169629e-02 -2.019729e-02 8.413544e-02 9.236210e-02 2.344128e-02 3.938069e-03 -8.694121e-03 4.366061e-02 2.649431e-02 3.394206e-02 1.127070e-02 -4.526957e-02 -1.736988e-02 -5.186604e-02 -8.594245e-02 -4.126685e-02 4.277204e-02 9.367370e-02 -1.878767e-02
<VARIANCE> 39
 1.345392e-01 2.755009e-01 2.429354e-01 4.801608e-01 4.165717e-01 4.045134e-01 4.572164e-01 5.262125e-01 3.768213e-01 7.293937e-01 7.447416e-01 3.970696e-01 9.727478e-03 8.972857e-03 2.556942e-02 1.833159e-02 2.751346e-02 3.282414e-02 4.058903e-02 3.887375e-02 4.904535e-02 4.582025e-02 4.925798e-02 6.575197e-02 5.177990e-02 1.374552e-03 2.228436e-03 3.625587e-03 3.751320e-03 6.422621e-03 6.257616e-03 6.639153e-03 6.980971e-03 8.808475e-03 7.550440e-03 1.064589e-02 9.978601e-03 6.753586e-03 3.295859e-04
<GCONST> -6.053243e+01
<MIXTURE> 5 6.197098e-02
<MEAN> 39
 2.765485e-01 3.008889e-01 2.101902e-01 -1.351337e+00 -4.191695e-01 4.927470e-01 1.016267e-01 7.981007e-01 5.799258e-01 -7.156394e-01 -5.222209e-01 -3.274066e-01 8.030789e-01 2.109967e-03 -6.424498e-02 -1.276102e-02 3.231493e-03 2.435777e-02 8.364620e-02 3.037018e-02 3.726666e-02 6.870351e-02 4.748172e-02 -2.358364e-02 -7.528199e-02 1.592874e-02 -1.758042e-02 1.420176e-03 5.441096e-03 4.473045e-02 2.325515e-02 -1.597736e-02 -2.577024e-02 -7.196981e-02 -3.542892e-02 3.633154e-02 4.358258e-02 4.292101e-02 -1.110983e-02
<VARIANCE> 39
 9.306395e-02 1.561945e-01 2.016393e-01 2.185030e-01 2.375874e-01 3.085673e-01 2.307932e-01 2.464116e-01 2.307040e-01 1.807057e-01 1.669822e-01 1.680502e-01 1.181306e-02 3.824994e-03 8.642161e-03 7.773953e-03 1.131850e-02 1.492470e-02 1.507221e-02 1.501004e-02 2.012635e-02 1.432780e-02 1.272559e-02 1.557592e-02 1.461946e-02 4.057875e-04 1.510905e-03 1.425162e-03 1.695177e-03 2.373038e-03 2.453472e-03 2.762519e-03 2.937042e-03 2.501194e-03 2.925392e-03 2.247839e-03 2.469742e-03 2.290103e-03 7.799065e-05
<GCONST> -9.598148e+01
<MIXTURE> 6 8.080927e-02
<MEAN> 39
 2.206174e-01 -1.284913e-01 3.142155e-02 -1.036814e+00 -3.373010e-01 6.634528e-01 -2.284670e-01 -2.042222e-01 1.556719e-02 -6.617668e-01 1.338437e-01 6.395730e-01 8.141572e-01 1.243484e-02 -6.679089e-02 -2.967271e-02 3.551094e-02 1.071480e-02 8.626042e-02 7.998572e-02 1.931677e-02 -9.316362e-03 -2.660213e-02 -8.877963e-02 -6.369832e-02 1.805179e-02 -9.384028e-03 2.719948e-02 6.187143e-03 3.305367e-02 1.215801e-03 -5.063351e-02 6.193713e-03 1.558538e-02 1.946055e-02 5.254792e-02 -4.099733e-03 -4.801956e-02 -9.378157e-03
<VARIANCE> 39
 1.072557e-01 1.543213e-01 1.690158e-01 2.406069e-01 3.046093e-01 2.852754e-01 2.993427e-01 2.226578e-01 2.064957e-01 2.061470e-01 1.829151e-01 1.411762e-01 9.480258e-03 4.247082e-03 1.223337e-02 8.088280e-03 1.570518e-02 1.609550e-02 1.884594e-02 2.541563e-02 2.308346e-02 2.214796e-02 2.433262e-02 1.952996e-02 1.687676e-02 4.030430e-04 1.254979e-03 1.783580e-03 1.839652e-03 2.466309e-03 2.906592e-03 3.435786e-03 3.723656e-03 3.052682e-03 3.979740e-03 3.067316e-03 2.608321e-03 2.108903e-03 8.657271e-05
<GCONST> -9.097804e+01
<MIXTURE> 7 5.846937e-02
<MEAN> 39
 4.548492e-01 -1.178556e-01 1.282441e-01 -7.689705e-01 -8.500016e-01 5.374097e-01 6.110656e-01 5.230207e-02 4.728963e-01 -1.191545e-01 -5.641932e-01 -2.787582e-01 8.010482e-01 6.803156e-02 -1.476800e-01 -1.006068e-01 9.996192e-02 -1.451841e-02 2.490746e-02 1.451766e-01 3.176074e-02 -4.365819e-02 7.259145e-02 1.886628e-02 -1.045921e-01 2.872647e-02 -5.884383e-02 3.680496e-02 1.376680e-02 7.323644e-02 8.401356e-02 -6.700516e-02 -6.085851e-02 -1.212895e-02 -6.744765e-02 4.091964e-03 7.081208e-02 3.464809e-02 -2.289796e-02
<VARIANCE> 39
 9.764737e-02 1.435200e-01 1.595157e-01 2.046172e-01 2.268819e-01 2.374000e-01 2.935933e-01 2.926841e-01 2.360054e-01 1.580179e-01 1.797242e-01 1.824492e-01 1.133155e-02 1.143454e-02 1.537798e-02 1.802124e-02 2.286237e-02 2.411394e-02 3.112831e-02 2.810863e-02 3.208956e-02 3.059656e-02 2.030530e-02 2.225429e-02 1.978056e-02 7.821512e-04 3.245004e-03 2.652275e-03 3.149409e-03 3.879995e-03 4.095765e-03 4.972822e-03 5.020485e-03 5.742094e-03 3.883133e-03 3.406430e-03 3.563220e-03 3.328172e-03 1.786242e-04
<GCONST> -8.092338e+01
<MIXTURE> 8 4.238125e-02
<MEAN> 39
 -6.587832e-02 3.380692e-01 1.475774e-01 -1.782218e-01 -1.749857e-01 -5.452305e-02 -3.033342e-02 4.596019e-03 4.190198e-02 -7.951970e-02 1.178446e-03 3.409401e-02 5.207680e-01 5.782992e-02 -1.409375e-03 -2.050042e-02 -9.274028e-03 -9.394648e-03 -3.477764e-02 -5.806069e-03 1.840317e-02 8.642880e-03 1.020129e-02 -8.773964e-03 -1.294094e-02 1.962244e-03 -8.789371e-03 -1.335599e-02 6.558722e-03 -1.169145e-03 1.099887e-02 8.185199e-03 1.488075e-03 2.658834e-04 1.985713e-03 -2.734752e-03 2.664172e-03 7.303739e-05 3.526965e-04
<VARIANCE> 39
 5.238556e-01 3.379484e-01 3.225706e-01 4.007515e-01 3.014261e-01 3.022140e-01 2.379371e-01 2.449451e-01 2.415194e-01 1.815233e-01 1.771314e-01 1.238406e-01 5.478378e-02 2.050302e-02 1.874558e-02 2.228489e-02 2.596894e-02 2.135393e-02 2.404259e-02 2.289903e-02 2.210196e-02 2.191228e-02 1.907627e-02 1.595208e-02 1.358979e-02 1.763462e-03 5.736758e-03 3.582451e-03 4.267416e-03 4.628365e-03 4.250696e-03 4.441381e-03 3.902593e-03 3.752867e-03 3.790302e-03 3.490229e-03 3.199257e-03 2.222904e-03 3.412848e-04
<GCONST> -7.493185e+01
<MIXTURE> 9 7.735476e-02
<MEAN> 39
 5.911684e-01 -3.186398e-02 -1.511069e-01 -1.325248e-01 -8.187065e-01 -6.279839e-01 8.987584e-01 3.781618e-01 -2.092580e-01 2.772530e-01 -8.140346e-02 -2.534911e-01 7.663410e-01 2.417990e-02 -1.915400e-02 -2.775337e-02 -1.078621e-03 -2.260273e-03 -3.209858e-02 2.359525e-02 2.253401e-02 -1.941489e-02 5.829618e-03 -1.662381e-03 1.040587e-02 1.248112e-02 -5.502274e-02 2.985459e-02 3.786562e-02 1.795239e-02 6.269871e-02 5.680259e-02 -9.105140e-02 -4.582190e-02 2.410047e-02 -3.675309e-02 4.040792e-03 2.428840e-02 -2.673991e-02
<VARIANCE> 39
 1.132847e-01 1.329513e-01 1.732279e-01 2.116633e-01 1.813089e-01 2.317706e-01 2.207727e-01 2.750322e-01 1.585730e-01 2.041134e-01 1.344572e-01 1.045142e-01 1.644846e-02 6.454813e-03 1.050214e-02 1.238912e-02 1.431941e-02 1.495173e-02 2.261365e-02 2.166840e-02 2.050576e-02 1.496040e-02 1.427318e-02 1.175097e-02 8.479124e-03 9.778638e-04 3.110608e-03 2.375915e-03 2.823626e-03 3.309494e-03 3.710891e-03 4.152642e-03 4.530230e-03 3.811165e-03 2.866831e-03 3.257528e-03 2.385841e-03 1.996468e-03 2.468067e-04
<GCONST> -8.972767e+01
<MIXTURE> 10 7.052871e-02
<MEAN> 39
 2.579131e-02 -2.992001e-01 -7.043746e-02 -6.947842e-01 -2.126748e-01 4.455125e-01 -3.466657e-01 -2.291641e-01 2.865945e-01 2.368124e-01 6.754298e-01 3.043270e-01 8.072902e-01 8.146144e-03 -2.016592e-02 -2.232484e-03 3.302118e-02 2.048351e-02 2.947963e-03 3.382823e-03 -4.711934e-02 -5.032770e-02 -4.570350e-02 -1.584580e-02 4.387001e-02 4.345230e-04 1.391097e-02 3.173501e-02 8.690869e-03 -2.595491e-03 -1.739353e-02 -2.593043e-02 1.565292e-02 2.923901e-02 6.653327e-03 -2.105223e-02 -4.492529e-02 -1.418358e-02 -6.316470e-03
<VARIANCE> 39
 1.271475e-01 2.411154e-01 1.625402e-01 3.260539e-01 3.936062e-01 3.202673e-01 3.102579e-01 3.543982e-01 3.543175e-01 3.738887e-01 3.264385e-01 1.814695e-01 1.085298e-02 4.043282e-03 9.251324e-03 7.513402e-03 1.228482e-02 1.337229e-02 1.618442e-02 1.696731e-02 1.909137e-02 2.270397e-02 2.548696e-02 1.696699e-02 1.511228e-02 3.153955e-04 7.606091e-04 1.672166e-03 1.478470e-03 1.794966e-03 2.541424e-03 2.737108e-03 2.791530e-03 3.429830e-03 3.616708e-03 3.440026e-03 2.956057e-03 2.440331e-03 6.280993e-05
<GCONST> -9.079360e+01
<MIXTURE> 11 6.203262e-02
<MEAN> 39
 2.049597e-01 -7.194725e-02 2.835277e-02 -1.056184e+00 -3.561379e-01 4.623142e-01 -5.611272e-01 -2.198748e-01 1.990808e-01 -5.177802e-01 4.760562e-01 6.648422e-01 7.687175e-01 4.258464e-02 5.578946e-03 2.300771e-02 4.251313e-02 -2.932713e-02 -1.598101e-02 2.139656e-02 -5.243493e-02 -6.367414e-02 -3.394438e-02 -6.411067e-02 7.799167e-03 -5.636785e-03 -1.755158e-02 6.189598e-02 1.696190e-02 6.023830e-02 2.740026e-03 -6.447551e-02 3.958604e-02 2.061202e-02 -1.954258e-02 4.754695e-02 -4.105572e-02 -5.344221e-02 -2.057008e-02
<VARIANCE> 39
 1.097997e-01 1.653105e-01 1.726821e-01 1.865424e-01 2.548266e-01 2.601474e-01 2.457901e-01 2.328153e-01 2.304684e-01 2.505508e-01 1.919011e-01 1.319073e-01 1.066814e-02 6.328841e-03 2.162414e-02 1.111191e-02 1.459892e-02 1.978610e-02 2.543852e-02 2.084539e-02 1.970669e-02 2.294500e-02 2.963311e-02 1.833706e-02 1.555756e-02 1.090106e-03 2.723146e-03 2.650882e-03 3.197485e-03 3.898537e-03 4.744563e-03 4.265564e-03 4.787649e-03 4.231063e-03 4.255606e-03 4.420226e-03 3.044276e-03 2.993392e-03 1.963422e-04
<GCONST> -8.347111e+01
<MIXTURE> 12 9.449613e-02
<MEAN> 39
 4.027223e-01 -1.331236e-02 3.435628e-01 -7.730971e-01 -9.127240e-01 3.840391e-01 4.077724e-01 -1.762817e-01 6.299055e-01 -1.660194e-02 -3.660460e-01 -5.839918e-02 7.830010e-01 1.849085e-03 -4.377462e-02 -2.979808e-02 -2.519225e-03 2.251319e-03 3.058265e-02 3.128449e-02 -4.098061e-03 -1.698933e-02 4.882337e-03 1.876745e-02 1.588902e-03 1.093303e-02 -1.620919e-02 2.508719e-02 5.644930e-04 2.736487e-02 3.690940e-02 -2.148608e-02 -2.328674e-02 5.619195e-03 -3.727825e-02 -5.755546e-03 1.333719e-02 2.910857e-04 -1.005015e-02
<VARIANCE> 39
 9.005670e-02 1.430117e-01 1.502874e-01 1.784229e-01 2.052676e-01 2.368825e-01 2.308720e-01 1.565132e-01 1.868858e-01 1.827346e-01 1.497253e-01 1.258569e-01 1.233836e-02 2.578285e-03 5.806780e-03 6.041579e-03 8.422823e-03 1.107659e-02 9.726455e-03 1.077828e-02 9.411328e-03 1.351041e-02 9.487973e-03 8.647361e-03 7.188713e-03 2.798181e-04 9.287515e-04 1.197527e-03 1.298674e-03 1.679137e-03 2.093744e-03 2.134695e-03 2.037297e-03 1.789554e-03 1.994038e-03 1.792223e-03 1.677704e-03 1.419549e-03 6.765867e-05
<GCONST> -1.072136e+02
<MIXTURE> 13 5.546454e-02
<MEAN> 39
 3.135797e-01 3.820267e-01 2.443304e-01 -1.300085e+00 -4.857349e-01 3.553544e-01 -9.258016e-02 5.840524e-01 6.717899e-01 -5.909407e-01 -2.644101e-01 -2.181002e-01 7.651869e-01 2.747436e-02 4.058552e-02 1.799230e-02 2.459820e-02 -4.371808e-03 -4.616130e-02 -1.764766e-02 -1.479726e-02 -1.299039e-02 1.490000e-02 -4.042951e-03 -1.840211e-02 -1.186275e-02 -1.641331e-02 2.349893e-02 8.410973e-03 8.240271e-02 2.407891e-02 -3.953043e-02 -9.660780e-03 -6.715573e-02 -6.706447e-02 3.401755e-02 1.370217e-02 2.916316e-02 -2.075798e-02
<VARIANCE> 39
 9.948181e-02 1.554036e-01 1.851833e-01 1.964786e-01 2.202159e-01 2.592816e-01 2.232973e-01 2.647187e-01 2.715973e-01 2.761087e-01 2.026288e-01 1.721862e-01 1.411367e-02 3.670684e-03 9.286333e-03 9.057784e-03 1.361720e-02 1.478742e-02 1.360064e-02 1.645251e-02 2.082552e-02 1.589122e-02 1.436784e-02 1.473771e-02 1.281877e-02 6.376417e-04 2.294549e-03 2.026574e-03 2.459020e-03 3.383927e-03 3.042832e-03 3.458290e-03 3.473321e-03 3.834454e-03 3.321492e-03 3.620808e-03 2.570196e-03 2.730128e-03 1.405452e-04
<GCONST> -9.052731e+01
<MIXTURE> 14 4.847123e-02
<MEAN> 39
 1.289343e-01 -1.891984e-01 -8.364155e-02 -7.954902e-01 -5.550644e-01 6.260888e-02 -2.472479e-01 9.750129e-02 5.466754e-01 6.051241e-01 7.825233e-01 1.086919e-01 7.671638e-01 4.253412e-02 -3.763612e-02 -1.216143e-02 7.712732e-02 1.234647e-03 -4.735577e-02 -2.184858e-02 -8.980752e-02 -1.450184e-01 -5.599404e-02 6.045073e-02 1.221647e-01 1.563571e-03 -2.312101e-02 5.084400e-02 1.720897e-02 4.283249e-02 4.039673e-02 -1.257108e-02 2.149616e-02 5.971781e-03 -3.980669e-02 -6.223544e-02 -8.110262e-02 -8.127128e-03 -1.965400e-02
<VARIANCE> 39
 1.612833e-01 3.211097e-01 2.203679e-01 4.344698e-01 3.828403e-01 4.163857e-01 3.612761e-01 4.746915e-01 4.611496e-01 3.065201e-01 2.686588e-01 2.376665e-01 1.281509e-02 1.606275e-02 3.317249e-02 2.565160e-02 3.114787e-02 2.915073e-02 4.619543e-02 3.575231e-02 4.831269e-02 4.528276e-02 4.104753e-02 3.947131e-02 3.669817e-02 2.355895e-03 3.907683e-03 4.262505e-03 4.184303e-03 6.363253e-03 6.702963e-03 7.713320e-03 6.991317e-03 8.554576e-03 9.102572e-03 6.035686e-03 5.112878e-03 5.243403e-03 3.310840e-04
<GCONST> -6.229036e+01
<MIXTURE> 15 4.376335e-02
<MEAN> 39
 4.796659e-01 1.539392e-01 2.119570e-01 -8.999016e-01 -9.185642e-01 1.526615e-01 5.708503e-01 1.215819e-02 6.519866e-01 -1.572242e-01 -6.286810e-01 -6.192181e-02 7.824973e-01 4.361192e-02 2.971937e-02 3.416491e-02 -1.956473e-02 -1.025960e-02 -3.789794e-02 -1.576823e-02 -1.702955e-03 3.172095e-02 -8.266383e-03 -3.049466e-02 -1.521233e-02 -5.351324e-04 -7.370240e-02 3.649585e-02 1.131177e-02 1.004693e-01 9.779880e-02 -2.159371e-02 -8.704394e-02 -1.573640e-02 -8.234999e-02 3.914633e-03 7.560741e-02 1.169288e-02 -3.821277e-02
<VARIANCE> 39
 1.191446e-01 1.794447e-01 1.762617e-01 2.534806e-01 2.667606e-01 3.084500e-01 2.903146e-01 4.099685e-01 2.376597e-01 4.118833e-01 1.525353e-01 2.226429e-01 1.455338e-02 9.363669e-03 1.717619e-02 1.219776e-02 3.136841e-02 2.098076e-02 2.544419e-02 3.052021e-02 2.240773e-02 2.813216e-02 2.087275e-02 1.881568e-02 1.879837e-02 1.618693e-03 4.214973e-03 3.861279e-03 4.136226e-03 5.500925e-03 5.562178e-03 6.449017e-03 5.421575e-03 8.352391e-03 4.936128e-03 7.873202e-03 3.190380e-03 4.396600e-03 3.604487e-04
<GCONST> -7.429191e+01
<MIXTURE> 16 3.172223e-02
<MEAN> 39
 3.948239e-01 3.448496e-01 2.061521e-01 -9.686132e-01 -2.003408e-01 -5.055810e-02 -3.260104e-01 -1.188123e-01 7.868415e-03 -3.005448e-01 5.670525e-02 3.918598e-01 6.730775e-01 6.910938e-02 1.916023e-02 -1.296774e-02 1.008575e-01 -2.960714e-02 -6.490978e-02 3.410404e-02 -1.199607e-02 -7.135749e-02 1.913244e-02 -5.725778e-02 -4.135015e-02 -2.003277e-02 -7.682620e-02 -8.886082e-03 -8.130897e-03 9.509594e-02 1.795128e-02 3.813040e-03 3.375793e-02 2.168581e-02 5.469481e-03 3.468005e-02 1.065183e-03 -4.631210e-02 -2.478394e-02
<VARIANCE> 39
 2.109874e-01 3.466338e-01 2.892406e-01 4.155026e-01 3.512054e-01 4.156223e-01 3.069900e-01 3.371660e-01 2.675684e-01 2.585303e-01 1.870768e-01 2.421923e-01 2.771791e-02 3.019659e-02 3.294444e-02 3.287970e-02 5.597132e-02 3.298607e-02 3.331451e-02 3.673492e-02 3.241046e-02 2.801814e-02 3.186735e-02 2.231373e-02 2.112843e-02 5.252267e-03 5.705016e-03 5.412024e-03 6.226593e-03 8.458937e-03 7.239630e-03 7.448355e-03 5.834932e-03 7.073177e-03 6.346005e-03 5.889779e-03 3.839964e-03 4.511683e-03 7.377826e-04
<GCONST> -6.181789e+01
<STATE> 4
<NUMMIXES> 16
<MIXTURE> 1 6.286051e-02
<MEAN> 39
 2.588693e-01 -3.161440e-01 1.482591e-01 -7.505949e-01 -4.260978e-01 8.496444e-01 7.364657e-02 -1.030101e-02 4.891183e-01 -1.622717e-01 -1.162363e-01 -1.267965e-01 8.435807e-01 -2.468426e-03 -2.089180e-02 -7.563676e-03 2.039232e-02 2.264003e-02 7.671664e-03 1.846716e-03 -3.031693e-02 -2.688974e-02 2.199546e-02 2.022456e-02 8.703670e-03 -1.354474e-03 1.168326e-03 4.835590e-03 -6.951724e-04 1.359256e-03 -9.316716e-04 -9.236392e-03 4.658649e-03 6.624736e-04 -6.593576e-03 -1.709104e-03 -3.370547e-03 4.805631e-03 -8.268658e-04
<VARIANCE> 39
 1.008840e-01 1.928704e-01 1.296162e-01 2.906894e-01 4.118896e-01 1.919203e-01 2.138802e-01 3.058086e-01 2.165115e-01 1.836298e-01 1.878055e-01 1.361539e-01 5.705492e-03 1.055378e-03 2.437646e-03 2.592911e-03 4.493522e-03 4.918562e-03 4.967698e-03 5.365246e-03 7.428098e-03 7.042558e-03 6.118629e-03 5.163722e-03 5.850097e-03 8.062061e-05 1.557633e-04 3.235918e-04 3.638214e-04 4.866129e-04 6.398112e-04 6.734307e-04 6.772245e-04 8.782113e-04 7.858849e-04 7.069308e-04 6.933168e-04 6.509972e-04 9.265170e-06
<GCONST> -1.296755e+02
<MIXTURE> 2 5.869200e-02
<MEAN> 39
 4.306221e-01 -4.275585e-01 -4.285223e-02 -4.158521e-01 -5.654868e-01 3.135127e-01 6.543517e-01 -3.712849e-02 -1.485270e-01 8.498454e-02 -2.915487e-02 -1.558392e-01 8.164461e-01 4.047400e-02 -5.419130e-02 -9.637893e-02 1.720881e-01 7.937055e-02 -1.362732e-01 4.404019e-02 5.115123e-02 -1.443300e-01 1.688085e-02 7.189059e-02 -2.019707e-02 -1.392242e-03 -1.319685e-02 5.076704e-02 1.089213e-02 2.085174e-02 3.262596e-02 -4.684893e-02 -6.102611e-02 7.206829e-03 2.111562e-02 -1.894296e-02 -3.571280e-03 2.057106e-02 -1.401591e-02
<VARIANCE> 39
 1.221203e-01 1.477786e-01 1.848804e-01 2.188704e-01 2.690443e-01 3.452194e-01 3.332807e-01 3.426725e-01 2.205300e-01 2.273681e-01 2.309376e-01 2.228426e-01 1.062260e-02 6.581043e-03 1.457732e-02 1.723999e-02 2.254151e-02 2.593915e-02 3.304950e-02 3.300238e-02 3.565756e-02 2.528507e-02 2.730966e-02 2.009533e-02 1.864133e-02 7.162866e-04 2.077018e-03 2.334511e-03 2.840565e-03 2.962908e-03 4.127431e-03 4.636205e-03 4.921205e-03 5.115553e-03 3.956123e-03 4.163081e-03 4.037877e-03 3.348255e-03 1.241960e-04
<GCONST> -8.051104e+01
<MIXTURE> 3 6.997567e-02
<MEAN> 39
 4.410326e-01 -9.552920e-02 -3.456702e-01 -1.886454e-01 -5.718890e-01 -4.204157e-02 7.323660e-01 1.787197e-01 -1.390965e-01 7.818988e-02 -1.001814e-01 -1.687817e-01 8.558909e-01 -2.680984e-03 -1.956457e-02 -1.696746e-02 5.135698e-03 1.653267e-02 2.011827e-02 1.289139e-02 -3.322345e-03 -1.622679e-02 -3.249173e-03 -6.962990e-04 2.509249e-03 1.384795e-03 4.770562e-03 -4.526390e-03 1.265860e-02 -5.492882e-03 1.949806e-04 4.577207e-03 -8.296373e-03 -8.320907e-03 7.960410e-03 1.045747e-03 -2.311640e-03 4.073532e-04 -2.440377e-03
<VARIANCE> 39
 1.518102e-01 2.058756e-01 1.565116e-01 2.165283e-01 2.263391e-01 3.907273e-01 2.427993e-01 2.915854e-01 2.365512e-01 1.997242e-01 1.740373e-01 1.149025e-01 7.669705e-03 3.531598e-03 4.878691e-03 5.063463e-03 7.125167e-03 8.390035e-03 1.014253e-02 1.030395e-02 1.001240e-02 9.422659e-03 8.125772e-03 8.327230e-03 6.376020e-03 1.366044e-04 6.923634e-04 9.144384e-04 8.970795e-04 1.184196e-03 1.390181e-03 1.691057e-03 1.752865e-03 1.694311e-03 1.660356e-03 1.440130e-03 1.429139e-03 1.086225e-03 1.821884e-05
<GCONST> -1.109982e+02
<MIXTURE> 4 2.597007e-02
<MEAN> 39
 -4.258220e-01 -1.761777e-01 2.194526e-01 1.285277e-01 1.808547e-01 2.260072e-01 -1.649650e-02 -3.667667e-02 1.220623e-01 -8.505582e-03 -7.010818e-03 -1.442248e-02 4.313831e-01 1.787613e-02 -5.832881e-02 6.156234e-03 -1.332810e-02 -3.365075e-03 -1.353906e-02 1.143107e-02 9.174761e-03 2.004383e-02 1.903852e-02 -6.206032e-03 -2.874201e-03 1.701484e-02 4.077058e-02 1.565012e-02 -9.140342e-03 -1.495972e-02 -2.591634e-02 -1.003080e-02 4.807779e-03 -8.793157e-03 -1.144676e-02 4.314954e-04 -1.159803e-03 2.512761e-03 7.328618e-03
<VARIANCE> 39
 3.280253e-01 3.672020e-01 3.052376e-01 3.963786e-01 3.025444e-01 3.272934e-01 3.273205e-01 2.916130e-01 2.674767e-01 1.857762e-01 1.622061e-01 1.316561e-01 6.064892e-02 3.334361e-02 2.800784e-02 2.392257e-02 2.936118e-02 3.004969e-02 2.667785e-02 3.057699e-02 2.593617e-02 2.437428e-02 1.853789e-02 1.646186e-02 1.382995e-02 4.354244e-03 4.520618e-03 5.464325e-03 4.587150e-03 5.139031e-03 5.784621e-03 5.416450e-03 6.058730e-03 5.512381e-03 5.048917e-03 3.889343e-03 3.272318e-03 3.022273e-03 7.560402e-04
<GCONST> -6.838738e+01
<MIXTURE> 5 8.279330e-02
<MEAN> 39
 3.375731e-01 3.563305e-01 2.853527e-01 -9.452689e-01 -6.266571e-01 6.215044e-02 6.433234e-02 -2.588793e-02 6.264682e-01 -7.269289e-02 -3.335275e-01 9.737480e-02 7.223912e-01 2.286366e-02 1.024448e-01 1.950642e-02 3.534180e-02 3.388492e-02 -6.732039e-02 -7.877278e-02 -1.675602e-02 -3.613017e-02 -2.124403e-02 4.970071e-03 1.329441e-02 -3.027570e-02 -1.045556e-02 7.174293e-03 -5.297350e-03 5.280846e-02 2.318730e-02 -7.972325e-03 -6.838554e-03 -2.550787e-03 -5.254531e-02 -4.745284e-03 2.531878e-02 -1.015911e-02 -1.268706e-02
<VARIANCE> 39
 1.170240e-01 1.836708e-01 1.781163e-01 2.249590e-01 2.694705e-01 3.070082e-01 3.355454e-01 3.061209e-01 2.626206e-01 3.731389e-01 2.648770e-01 1.983569e-01 1.572117e-02 6.565089e-03 1.350937e-02 1.283091e-02 2.314879e-02 2.140501e-02 2.171271e-02 2.598197e-02 2.343396e-02 2.776539e-02 2.260177e-02 1.976284e-02 1.645750e-02 9.750663e-04 1.507577e-03 2.006124e-03 2.163699e-03 2.708750e-03 3.266402e-03 3.540051e-03 3.980512e-03 3.881381e-03 3.423110e-03 4.033889e-03 3.150173e-03 2.499800e-03 1.483742e-04
<GCONST> -8.339671e+01
<MIXTURE> 6 6.829350e-02
<MEAN> 39
 3.565203e-01 -2.352349e-01 -9.022631e-02 -3.021243e-01 -5.853034e-01 5.697465e-02 7.311292e-01 -1.053694e-01 -3.885598e-02 2.740833e-01 -1.526175e-01 -1.539565e-01 8.286914e-01 1.706012e-04 -1.038217e-02 -7.029015e-03 2.893324e-03 8.250535e-03 8.609086e-03 5.473003e-03 1.114673e-03 -1.170063e-02 -5.382618e-03 -1.270769e-03 2.354358e-03 2.341924e-04 1.028747e-03 1.437689e-03 1.635225e-03 -1.656153e-03 -8.639048e-04 2.373517e-03 -3.839664e-03 1.017547e-03 4.443768e-03 -3.329291e-03 -1.423084e-03 7.598785e-05 -7.124402e-04
<VARIANCE> 39
 9.237659e-02 1.840517e-01 1.457143e-01 2.386027e-01 2.377877e-01 3.475980e-01 2.329238e-01 2.634656e-01 2.904290e-01 1.489957e-01 1.486092e-01 1.108683e-01 8.429372e-03 6.362022e-04 1.205507e-03 1.622141e-03 2.217582e-03 2.624772e-03 2.998950e-03 3.053037e-03 3.447333e-03 3.223608e-03 3.038215e-03 2.841935e-03 2.501255e-03 5.072482e-05 9.764070e-05 1.717339e-04 2.414500e-04 3.348033e-04 4.173988e-04 4.337452e-04 4.569536e-04 4.782939e-04 4.433040e-04 4.265994e-04 4.068941e-04 3.736723e-04 4.852061e-06
<GCONST> -1.446811e+02
<MIXTURE> 7 8.057305e-02
<MEAN> 39
 3.225181e-01 -9.512966e-02 1.974383e-01 -7.214999e-01 -4.639186e-01 4.690439e-01 1.677274e-01 -2.513180e-01 4.077443e-01 -9.679291e-02 -2.475678e-01 1.517494e-01 7.716228e-01 8.636714e-03 2.245524e-02 1.043673e-02 8.144340e-03 5.241785e-03 -3.171694e-02 -1.498352e-02 -4.730888e-03 -1.086861e-03 3.378335e-03 -8.033911e-03 3.727173e-03 -1.094342e-02 2.581496e-03 1.757105e-02 -3.545023e-03 1.405150e-02 -2.145134e-03 -2.052065e-02 -3.482166e-03 1.238781e-02 -1.249630e-02 2.711708e-03 4.743603e-03 -1.258293e-02 -4.406066e-03
<VARIANCE> 39
 1.039501e-01 2.390212e-01 1.561540e-01 2.462946e-01 3.230307e-01 3.121727e-01 2.857552e-01 2.312490e-01 2.366287e-01 2.140527e-01 1.794171e-01 1.324600e-01 1.404591e-02 2.589121e-03 6.728827e-03 5.735014e-03 9.345592e-03 9.689662e-03 1.101650e-02 1.219677e-02 1.160161e-02 1.133662e-02 1.028793e-02 8.257823e-03 7.865645e-03 2.148418e-04 4.638678e-04 9.574276e-04 9.780796e-04 1.254221e-03 1.640668e-03 1.881117e-03 1.707030e-03 1.654074e-03 1.554417e-03 1.505692e-03 1.349027e-03 1.151580e-03 4.065187e-05
<GCONST> -1.073738e+02
<MIXTURE> 8 5.577819e-02
<MEAN> 39
 4.230221e-01 3.091558e-01 3.601280e-01 -6.588624e-02 -2.335194e-01 -1.627368e-01 -3.056914e-01 -4.492072e-01 -2.126419e-01 -8.125822e-02 1.777731e-02 1.689668e-01 4.875275e-01 -5.371263e-02 4.609110e-02 3.615029e-02 8.440886e-02 4.605734e-02 -2.352796e-02 -3.122770e-02 -5.059348e-03 -4.134324e-02 -2.279790e-02 1.122421e-03 3.350911e-03 -5.716820e-02 -3.158458e-02 -3.471816e-02 -3.110843e-02 -1.883977e-02 -2.799788e-03 3.155177e-02 4.760327e-02 4.596644e-02 3.421904e-02 9.468000e-03 -9.254842e-03 -2.106286e-02 3.150196e-03
<VARIANCE> 39
 1.207101e-01 2.436249e-01 2.001737e-01 3.136993e-01 2.650560e-01 3.295064e-01 3.172660e-01 3.082744e-01 2.432086e-01 2.593939e-01 2.229255e-01 1.592828e-01 2.361774e-02 1.337365e-02 1.912322e-02 1.894132e-02 2.229954e-02 2.347506e-02 2.731705e-02 2.922268e-02 2.777077e-02 2.479717e-02 2.282046e-02 1.987885e-02 1.415206e-02 2.226220e-03 1.787295e-03 2.386444e-03 2.855737e-03 2.923955e-03 4.069990e-03 4.421425e-03 4.018916e-03 4.280312e-03 3.564299e-03 3.994022e-03 3.405523e-03 2.650174e-03 2.002832e-04
<GCONST> -7.874218e+01
<MIXTURE> 9 8.556146e-02
<MEAN> 39
 5.143523e-01 -1.391628e-01 -1.181490e-01 -2.161752e-01 -7.712933e-01 -1.620412e-01 8.795588e-01 1.428599e-01 -1.557402e-01 2.641369e-01 -1.801525e-01 -3.041280e-01 7.702208e-01 -2.078177e-04 -7.298823e-03 -4.960812e-03 1.000842e-02 2.801848e-02 1.089917e-02 -1.850461e-02 -9.649068e-03 -1.918952e-02 -2.563785e-03 1.506912e-02 1.192640e-02 -5.748501e-03 -4.846747e-03 1.064862e-02 1.091240e-02 -4.764461e-04 1.499604e-02 4.440309e-03 -2.809384e-02 -1.095943e-02 7.542000e-03 -1.056600e-02 2.414806e-03 1.336013e-02 -5.334399e-03
<VARIANCE> 39
 7.777047e-02 1.322365e-01 1.409010e-01 1.709350e-01 1.978325e-01 3.361528e-01 2.034581e-01 2.557195e-01 1.985729e-01 1.722264e-01 1.495077e-01 9.887324e-02 1.474336e-02 1.836996e-03 4.165531e-03 5.808007e-03 7.218042e-03 9.106360e-03 1.138229e-02 1.052536e-02 1.041181e-02 9.538570e-03 8.052068e-03 7.783737e-03 6.715726e-03 3.206956e-04 3.429737e-04 6.512115e-04 9.325666e-04 1.087976e-03 1.363751e-03 1.782680e-03 1.617262e-03 1.574191e-03 1.463054e-03 1.463447e-03 1.314035e-03 1.105075e-03 4.641350e-05
<GCONST> -1.130295e+02
<MIXTURE> 10 7.946789e-02
<MEAN> 39
 4.247170e-01 -2.310477e-01 1.189262e-01 -2.414459e-01 -2.675823e-01 2.804800e-01 1.683948e-01 -3.854997e-01 -5.971459e-02 1.284669e-01 -7.668399e-02 -8.990355e-04 6.672136e-01 7.679029e-03 3.379988e-02 2.037556e-02 5.365251e-02 1.545100e-02 -4.369139e-02 -4.491015e-02 -2.253629e-02 -1.905844e-02 6.146919e-03 4.605785e-03 2.460490e-03 -2.715412e-02 -5.793983e-03 1.569841e-02 3.879273e-03 3.097691e-03 -3.862086e-03 -1.005969e-02 -2.925552e-03 1.383257e-02 4.373350e-03 -9.982783e-03 -4.085366e-03 -2.289673e-03 -4.729414e-03
<VARIANCE> 39
 9.651079e-02 3.036169e-01 1.500728e-01 3.028647e-01 2.885030e-01 3.526674e-01 3.031680e-01 2.485424e-01 2.836108e-01 1.931903e-01 1.655762e-01 1.113578e-01 2.191919e-02 3.457146e-03 6.491115e-03 6.752910e-03 8.621718e-03 1.044672e-02 1.136700e-02 1.147269e-02 1.128345e-02 1.064202e-02 9.774581e-03 8.188548e-03 7.056477e-03 4.505571e-04 6.165458e-04 1.200988e-03 1.192487e-03 1.489766e-03 1.782699e-03 1.970707e-03 1.977181e-03 1.865775e-03 1.839192e-03 1.650327e-03 1.404975e-03 1.212201e-03 7.907033e-05
<GCONST> -1.034736e+02
<MIXTURE> 11 6.303564e-02
<MEAN> 39
 5.323697e-01 3.300625e-01 1.669905e-01 -6.261979e-01 -7.237668e-01 5.583559e-03 1.627581e-01 9.740082e-02 3.130099e-01 -8.057809e-02 -3.132032e-01 -1.535356e-01 6.376810e-01 -1.010341e-02 1.144083e-01 6.937356e-02 1.610442e-01 7.320762e-02 -9.529356e-02 -1.005847e-01 -7.605785e-02 -1.215375e-01 -1.124474e-02 1.901029e-02 1.940431e-02 -6.970799e-02 -5.544230e-02 -1.331007e-02 5.978889e-03 4.325543e-02 5.225845e-02 1.226700e-02 -1.571544e-02 -1.819577e-02 -2.861625e-02 -4.285825e-03 2.786765e-02 2.072453e-02 -1.587442e-02
<VARIANCE> 39
 1.111030e-01 2.018059e-01 1.758571e-01 2.567921e-01 2.456028e-01 3.654422e-01 3.782320e-01 3.600061e-01 2.464698e-01 3.275940e-01 2.155553e-01 1.988258e-01 2.278958e-02 1.265408e-02 1.725702e-02 1.707529e-02 2.228551e-02 2.719049e-02 2.870965e-02 2.910673e-02 2.862461e-02 2.414936e-02 2.237345e-02 1.910236e-02 1.606137e-02 1.331450e-03 2.587026e-03 2.686549e-03 2.935880e-03 3.412373e-03 3.893099e-03 5.077173e-03 5.413878e-03 5.319249e-03 3.688367e-03 4.482673e-03 3.327780e-03 3.110616e-03 2.511203e-04
<GCONST> -7.730624e+01
<MIXTURE> 12 6.890384e-02
<MEAN> 39
 3.764857e-01 -6.471656e-02 5.755977e-02 -5.159888e-01 -7.395766e-01 1.677822e-01 6.707734e-01 -1.449567e-01 2.237666e-01 2.242034e-01 -3.788071e-01 -1.751364e-01 7.874917e-01 4.435220e-04 -4.380364e-03 -7.753723e-03 4.311382e-03 5.881349e-03 1.116815e-02 -1.914528e-03 -2.089054e-04 -1.358180e-02 -2.015385e-05 7.987646e-04 2.037500e-03 -1.645420e-03 7.308973e-04 2.637750e-03 8.441836e-04 2.639899e-03 2.359077e-03 -2.601039e-03 -4.863316e-03 1.345742e-03 -1.877700e-03 -1.378309e-03 2.419884e-03 4.255436e-05 -1.419071e-03
<VARIANCE> 39
 7.551575e-02 1.092180e-01 1.198566e-01 1.478880e-01 1.593240e-01 2.428534e-01 1.750566e-01 1.621987e-01 2.105585e-01 1.201185e-01 1.103615e-01 8.577108e-02 1.181675e-02 9.004470e-04 1.735839e-03 2.248723e-03 2.895889e-03 3.530632e-03 4.134777e-03 4.240234e-03 3.765930e-03 4.140527e-03 3.126423e-03 3.319943e-03 2.769069e-03 8.396606e-05 1.793364e-04 3.034225e-04 3.860126e-04 5.003347e-04 6.123041e-04 7.097841e-04 7.316913e-04 6.299160e-04 6.528638e-04 5.932169e-04 5.496071e-04 4.617202e-04 1.070952e-05
<GCONST> -1.392906e+02
<MIXTURE> 13 7.364740e-02
<MEAN> 39
 4.951565e-01 -4.432428e-01 -2.471979e-01 8.964155e-02 -2.834824e-01 -3.907729e-02 4.463185e-01 -1.210560e-01 -3.067556e-01 1.681261e-01 1.673294e-01 -8.058891e-02 7.197002e-01 2.601928e-02 9.118678e-02 4.390233e-02 5.122591e-02 1.849827e-02 -7.992608e-02 -9.547058e-02 -1.791744e-02 -6.636803e-03 -2.840206e-02 -1.610439e-02 2.092648e-02 -4.332243e-02 -2.676811e-02 4.660045e-02 3.830009e-02 -1.719477e-02 1.418587e-03 8.377681e-03 -3.274129e-02 1.195498e-03 2.793704e-02 -1.878576e-02 -2.432061e-02 6.154954e-03 -1.564022e-02
<VARIANCE> 39
 1.164802e-01 1.906284e-01 1.912667e-01 2.606306e-01 3.312802e-01 4.706532e-01 3.997562e-01 4.498262e-01 2.816406e-01 2.448512e-01 1.803253e-01 1.440293e-01 2.014972e-02 8.431662e-03 1.560428e-02 1.663825e-02 2.182349e-02 2.321803e-02 2.903556e-02 2.655093e-02 2.412106e-02 2.123333e-02 1.878283e-02 1.535936e-02 1.210454e-02 1.392741e-03 2.158546e-03 2.299369e-03 2.671627e-03 3.149274e-03 3.931302e-03 5.067416e-03 5.119424e-03 5.250309e-03 3.819731e-03 3.582505e-03 2.776351e-03 2.254376e-03 1.860802e-04
<GCONST> -8.045571e+01
<MIXTURE> 14 6.294966e-02
<MEAN> 39
 2.005740e-01 -8.443937e-02 8.289289e-02 -9.808397e-01 -2.689832e-01 5.836833e-01 -9.093211e-02 2.241685e-02 2.439371e-01 -4.201297e-01 5.735928e-02 3.024566e-01 7.958147e-01 1.154549e-03 -4.092708e-03 -4.814023e-03 -1.795088e-03 6.832866e-03 9.795663e-03 1.532128e-02 6.157568e-03 2.964794e-03 -1.060515e-02 -2.428698e-02 -9.797538e-03 1.568669e-03 2.300928e-03 4.153949e-03 -2.572268e-04 4.632138e-03 -3.095557e-03 -7.177740e-03 2.742224e-03 -6.558961e-04 2.159482e-03 9.689005e-03 -3.691299e-03 -8.311908e-03 -1.648686e-03
<VARIANCE> 39
 1.110742e-01 2.362087e-01 1.653935e-01 3.303664e-01 3.526679e-01 2.929806e-01 2.606803e-01 3.061377e-01 2.752274e-01 3.012502e-01 2.616399e-01 2.010859e-01 1.028463e-02 9.669587e-04 2.448044e-03 2.297246e-03 3.168636e-03 3.719924e-03 5.167528e-03 5.079161e-03 4.696312e-03 5.186696e-03 4.844822e-03 4.569910e-03 4.191408e-03 1.108498e-04 1.729021e-04 3.815626e-04 4.190742e-04 5.574285e-04 6.401559e-04 8.487020e-04 8.341739e-04 8.278276e-04 8.976675e-04 8.294965e-04 7.341462e-04 6.852383e-04 1.150460e-05
<GCONST> -1.269302e+02
<MIXTURE> 15 3.192529e-02
<MEAN> 39
 3.888051e-01 3.601850e-01 2.368553e-01 -5.592284e-02 -3.042134e-01 1.051309e-01 -1.011774e-02 -2.346302e-01 -8.041432e-02 -8.204209e-02 -2.095487e-01 -4.513498e-02 4.171461e-01 -2.415669e-01 4.354896e-02 -2.084230e-02 2.000773e-01 1.167164e-01 1.605674e-02 -3.452227e-02 5.790294e-02 -3.428509e-02 -1.035854e-02 2.928538e-02 -1.315447e-03 -1.141811e-01 -6.687739e-02 -5.231753e-02 -2.501953e-02 -6.081419e-03 1.769171e-02 6.830406e-03 2.009257e-02 2.911652e-02 2.426684e-02 1.558142e-02 2.074490e-02 5.743503e-03 1.379416e-03
<VARIANCE> 39
 1.575278e-01 2.391869e-01 1.955499e-01 3.108633e-01 2.198326e-01 2.867080e-01 2.977724e-01 2.844011e-01 2.593781e-01 2.258230e-01 1.714239e-01 1.448016e-01 3.477975e-02 3.632296e-02 2.861981e-02 2.722280e-02 4.615085e-02 3.485423e-02 3.636710e-02 4.540332e-02 3.823026e-02 3.371797e-02 3.170907e-02 2.328592e-02 2.018976e-02 2.287000e-03 3.936303e-03 3.376005e-03 3.488824e-03 4.791441e-03 4.185219e-03 4.407126e-03 4.718352e-03 4.874157e-03 4.135249e-03 4.033423e-03 2.946481e-03 2.565206e-03 4.692640e-04
<GCONST> -7.095340e+01
<MIXTURE> 16 2.950376e-02
<MEAN> 39
 -6.139931e-01 1.542446e-01 -2.141736e-02 4.447323e-01 1.000553e-01 2.075375e-01 1.856503e-02 6.220257e-02 -3.768435e-02 3.639168e-02 -8.275195e-03 -2.520366e-02 1.090903e-01 -2.248847e-01 -5.694288e-02 -4.662071e-02 1.088241e-01 8.062959e-02 3.858709e-03 1.287090e-02 8.000570e-02 2.271081e-02 2.324412e-02 3.198397e-02 -8.047485e-03 -7.086347e-02 7.005993e-02 -1.989246e-02 1.633398e-02 -6.173819e-02 -2.956994e-02 -5.968650e-03 1.905481e-03 -2.114881e-02 1.410071e-02 -2.066419e-03 -6.979962e-03 3.489699e-03 3.463737e-02
<VARIANCE> 39
 3.159614e-01 1.314930e-01 1.315090e-01 2.152189e-01 1.590581e-01 1.681714e-01 1.872301e-01 1.884321e-01 1.361510e-01 1.485908e-01 1.111856e-01 1.039732e-01 2.401535e-02 3.218601e-02 1.964122e-02 1.900715e-02 2.870216e-02 2.261473e-02 2.570033e-02 2.935350e-02 2.965809e-02 2.478186e-02 2.197559e-02 1.619329e-02 1.487325e-02 3.031064e-03 4.341820e-03 3.412087e-03 3.042638e-03 4.884259e-03 4.136183e-03 4.347259e-03 5.246757e-03 4.770807e-03 3.957459e-03 4.160835e-03 2.798593e-03 2.900818e-03 2.918505e-04
<GCONST> -7.977959e+01
<TRANSP> 5
 0.000000e+00 1.000000e+00 0.000000e+00 0.000000e+00 0.000000e+00
 0.000000e+00 5.020323e-01 4.979677e-01 0.000000e+00 0.000000e+00
 0.000000e+00 0.000000e+00 6.376722e-01 3.623278e-01 0.000000e+00
 0.000000e+00 0.000000e+00 0.000000e+00 8.040045e-01 1.959955e-01
 0.000000e+00 0.000000e+00 0.000000e+00 0.000000e+00 0.000000e+00
<ENDHMM>
~h "&"
<BEGINHMM>
<NUMSTATES> 5
<STATE> 2
<NUMMIXES> 16
<MIXTURE> 1 9.152051e-02
<MEAN> 39
 1.708840e-01 -4.508941e-01 -1.656245e-02 -4.589523e-01 3.618164e-03 7.489729e-01 -3.390912e-01 -3.865522e-01 3.415349e-01 -1.483591e-01 2.052218e-01 2.217859e-01 8.220815e-01 -5.894754e-02 -1.061016e-01 -1.855815e-02 6.928853e-02 1.202681e-01 7.697973e-02 -9.534228e-02 -3.913669e-02 8.359889e-03 8.978236e-03 6.569737e-02 7.887197e-03 1.843059e-02 1.822356e-02 5.509083e-02 7.966518e-03 1.742609e-03 -2.844157e-02 -7.363212e-02 3.477027e-02 2.336136e-02 -2.511038e-02 1.483995e-02 -2.888660e-02 -1.945609e-02 -8.923350e-03
<VARIANCE> 39
 1.178406e-01 1.508449e-01 1.448668e-01 2.621684e-01 2.977087e-01 2.518553e-01 3.585590e-01 2.494444e-01 2.345388e-01 2.699083e-01 2.616460e-01 1.672395e-01 9.160330e-03 5.551492e-03 1.773106e-02 1.038766e-02 2.431729e-02 2.204121e-02 2.527091e-02 2.767464e-02 2.869034e-02 2.683277e-02 2.825372e-02 2.065771e-02 1.983275e-02 4.951504e-04 8.088390e-04 1.956647e-03 1.738816e-03 2.557649e-03 3.340842e-03 3.605495e-03 3.745810e-03 3.476781e-03 3.757297e-03 3.431284e-03 3.530234e-03 2.641926e-03 6.564999e-05
<GCONST> -8.667445e+01
<MIXTURE> 2 2.066135e-02
<MEAN> 39
 -8.028280e-01 2.762049e-01 -7.408957e-02 2.822290e-01 1.105608e-01 1.779592e-01 1.154660e-01 3.109280e-01 7.612892e-02 1.605346e-02 -1.093715e-01 -7.102791e-02 5.489745e-02 1.738281e-01 -6.425705e-02 9.622791e-03 7.890686e-03 -1.425989e-02 2.891744e-03 -1.690576e-02 -7.499259e-02 -3.830657e-02 9.718386e-03 1.892790e-02 3.683631e-04 8.386642e-02 1.139523e-01 -8.022048e-02 2.139220e-03 -1.522275e-02 -1.744745e-02 -6.093775e-03 -1.138998e-02 -6.529913e-02 -1.703221e-02 1.297901e-02 3.188272e-02 8.257886e-03 5.741810e-02
<VARIANCE> 39
 2.311558e-01 1.298855e-01 1.221966e-01 1.978328e-01 1.129784e-01 1.415437e-01 1.637708e-01 1.432618e-01 1.579355e-01 1.185250e-01 1.000160e-01 8.861446e-02 2.588437e-02 5.034578e-02 2.228726e-02 1.456069e-02 2.493838e-02 1.793216e-02 2.132010e-02 2.260123e-02 2.313201e-02 2.124700e-02 1.539292e-02 1.247594e-02 1.034172e-02 7.748838e-03 4.655335e-03 3.900184e-03 3.639001e-03 6.682438e-03 4.199252e-03 5.644856e-03 6.274169e-03 4.732798e-03 5.967367e-03 4.096553e-03 3.250626e-03 2.568323e-03 5.516487e-04
<GCONST> -8.020760e+01
<MIXTURE> 3 5.169433e-02
<MEAN> 39
 2.986360e-01 -2.685337e-01 -2.596868e-01 -4.989067e-01 -5.692599e-01 3.581982e-01 6.609202e-01 2.764331e-01 4.356093e-01 3.280275e-01 -3.424210e-01 -5.409124e-01 8.481296e-01 -1.179862e-02 -9.147877e-02 -7.581598e-02 5.954166e-02 5.659958e-02 5.280318e-02 3.272158e-02 -3.559756e-02 -2.925490e-02 5.587941e-02 5.300185e-02 -1.213498e-02 2.200513e-02 -9.253721e-03 3.481494e-02 4.203323e-02 3.178331e-02 4.043026e-02 -4.882479e-02 -6.852096e-02 -3.224227e-02 -4.586331e-02 -3.962249e-02 4.042531e-02 6.942725e-02 -2.158221e-02
<VARIANCE> 39
 1.278188e-01 1.843488e-01 1.906969e-01 2.985794e-01 2.587716e-01 2.884179e-01 4.176068e-01 3.171141e-01 4.849353e-01 4.474759e-01 3.674069e-01 2.432162e-01 9.122083e-03 8.322989e-03 1.782292e-02 1.991122e-02 3.379153e-02 2.326894e-02 3.976542e-02 3.502221e-02 4.289151e-02 4.193326e-02 3.139191e-02 3.549081e-02 3.101795e-02 1.028677e-03 2.318491e-03 3.072290e-03 3.249613e-03 4.423583e-03 4.524556e-03 5.853170e-03 6.713245e-03 5.990175e-03 6.891737e-03 5.944346e-03 5.205553e-03 3.442421e-03 2.210450e-04
<GCONST> -7.123586e+01
<MIXTURE> 4 4.979395e-02
<MEAN> 39
 3.306649e-01 -1.469095e-01 2.058740e-02 2.924155e-01 -2.327866e-02 1.061560e-01 -2.080772e-03 -2.306071e-01 -1.425947e-01 1.175734e-01 3.730982e-02 -9.099111e-02 5.671920e-01 2.728838e-01 -1.902175e-01 -5.173261e-02 -2.780061e-02 -6.115405e-02 -2.083751e-02 1.048226e-02 -1.182748e-01 -4.905448e-02 5.711330e-02 6.273428e-02 -7.457264e-05 1.467128e-01 -3.760679e-02 -7.494612e-03 -3.566919e-03 -1.507824e-02 -1.055451e-04 -5.885461e-03 7.511879e-03 1.409537e-02 4.794819e-03 -6.437728e-03 5.626670e-03 9.719240e-03 -1.014938e-02
<VARIANCE> 39
 1.743753e-01 2.829682e-01 1.658854e-01 2.414756e-01 1.677275e-01 2.060245e-01 1.748824e-01 1.919576e-01 1.619048e-01 1.426073e-01 1.070672e-01 7.117213e-02 2.665523e-02 4.127732e-02 3.344462e-02 2.839727e-02 4.374425e-02 2.962293e-02 4.042965e-02 4.214991e-02 3.825536e-02 3.645535e-02 2.636908e-02 2.257998e-02 1.527447e-02 4.878040e-03 2.392917e-03 3.268233e-03 2.291389e-03 2.541338e-03 2.326668e-03 3.029852e-03 2.919445e-03 3.106938e-03 2.827996e-03 2.512441e-03 1.954907e-03 1.519993e-03 3.042989e-04
<GCONST> -8.021880e+01
<MIXTURE> 5 1.321089e-01
<MEAN> 39
 3.719916e-01 -2.896770e-01 -2.193663e-01 -3.526533e-01 -3.050172e-01 3.181114e-01 6.063864e-01 -9.102801e-02 -1.088115e-01 8.835550e-02 -1.953406e-01 -6.112165e-02 8.278636e-01 -2.069153e-02 -5.808765e-02 -2.817263e-02 4.554223e-02 6.204069e-02 5.131843e-02 -7.807858e-03 -5.709207e-02 -3.483097e-02 8.955081e-03 3.703370e-02 1.940178e-02 9.163606e-03 7.081415e-03 2.189412e-02 2.311208e-02 4.576153e-03 -4.407885e-03 -3.465674e-02 -2.975682e-02 5.707976e-03 5.380448e-03 -8.305105e-04 7.587993e-03 9.925273e-04 -8.100388e-03
<VARIANCE> 39
 1.111605e-01 1.447459e-01 1.710948e-01 2.780140e-01 2.221842e-01 3.016025e-01 3.362527e-01 3.093596e-01 2.606283e-01 1.821693e-01 1.606648e-01 1.430035e-01 1.034031e-02 2.641723e-03 7.358951e-03 6.858779e-03 1.265037e-02 1.161791e-02 1.412556e-02 1.358105e-02 1.499081e-02 1.590969e-02 1.176319e-02 1.237722e-02 1.004199e-02 3.012703e-04 5.560262e-04 1.180298e-03 1.244824e-03 1.561012e-03 1.862830e-03 2.360141e-03 2.025745e-03 2.372099e-03 2.120813e-03 1.879222e-03 1.676166e-03 1.597232e-03 5.608923e-05
<GCONST> -1.019758e+02
<MIXTURE> 6 7.555462e-02
<MEAN> 39
 5.827416e-01 -5.718449e-01 -4.608178e-01 4.077676e-01 -1.336807e-01 -3.426184e-01 3.808832e-01 9.845953e-02 -5.143087e-01 -2.063567e-02 3.798765e-01 4.161898e-02 7.624624e-01 2.770933e-02 -1.123423e-01 -8.287011e-02 6.442168e-02 -1.001071e-03 2.875392e-02 7.494936e-02 -1.640384e-02 -8.532505e-02 7.975605e-03 6.341823e-02 -7.249974e-03 4.474638e-02 -3.858493e-02 5.347908e-02 5.395649e-02 -3.205102e-02 8.390084e-03 1.806179e-02 -3.813856e-02 -1.627355e-02 4.718092e-02 7.106287e-03 -4.576088e-02 -6.652541e-03 -2.133181e-02
<VARIANCE> 39
 1.328347e-01 1.289156e-01 1.843729e-01 2.507498e-01 2.611052e-01 2.034929e-01 3.112454e-01 2.988635e-01 1.787186e-01 1.917969e-01 1.230545e-01 1.140717e-01 1.762788e-02 1.514119e-02 1.801551e-02 2.395663e-02 2.442743e-02 2.439408e-02 3.669481e-02 2.877512e-02 2.921805e-02 2.069763e-02 1.993976e-02 1.619593e-02 1.510814e-02 2.401118e-03 2.987978e-03 2.681036e-03 3.012760e-03 3.392086e-03 3.709088e-03 4.386984e-03 4.879766e-03 4.553864e-03 3.503608e-03 3.513970e-03 2.355571e-03 2.147994e-03 3.065170e-04
<GCONST> -8.089774e+01
<MIXTURE> 7 6.506614e-02
<MEAN> 39
 3.178267e-01 1.124138e-01 1.771701e-01 -9.279630e-01 -1.451991e-01 3.568108e-01 -1.722248e-01 -4.294098e-02 3.859934e-01 -2.491200e-01 -1.847934e-01 1.588814e-01 7.173350e-01 1.076470e-01 -5.705940e-02 -5.846014e-02 -1.493840e-01 -8.431126e-03 7.250509e-02 -2.496577e-03 -4.422823e-03 5.535888e-02 -2.173708e-02 -2.556949e-02 5.174694e-03 6.547607e-02 -4.314391e-02 2.307126e-03 -3.905682e-03 8.459014e-02 1.478585e-02 -3.828728e-02 2.006664e-02 3.316926e-03 -4.555337e-02 2.351959e-02 1.907925e-02 -1.584075e-02 -2.038992e-02
<VARIANCE> 39
 1.282175e-01 2.238178e-01 1.677882e-01 2.666436e-01 2.564320e-01 2.699243e-01 2.345417e-01 2.531651e-01 1.715043e-01 1.937263e-01 1.864736e-01 1.092137e-01 1.881164e-02 2.559462e-02 3.295816e-02 2.142213e-02 4.093447e-02 3.294811e-02 3.005801e-02 3.665435e-02 3.290937e-02 2.695831e-02 2.507864e-02 2.072944e-02 1.869985e-02 3.126477e-03 3.371313e-03 3.351854e-03 3.004063e-03 4.221474e-03 4.517791e-03 5.209409e-03 4.081986e-03 4.548584e-03 3.572714e-03 3.559885e-03 3.266346e-03 2.108867e-03 4.021602e-04
<GCONST> -7.561777e+01
<MIXTURE> 8 3.132308e-02
<MEAN> 39
 -2.073209e-01 -1.464630e-02 3.018958e-01 3.232409e-01 1.468111e-01 -2.388936e-02 -1.882205e-01 -3.258132e-01 -1.736088e-01 7.552899e-02 1.697972e-01 9.901574e-02 2.562448e-01 8.695285e-02 -1.895529e-02 -1.481536e-02 -3.257077e-02 -2.508351e-02 -2.835524e-04 1.202989e-02 -1.029426e-02 -1.002118e-02 2.413458e-03 -6.800609e-03 -5.957539e-03 5.262178e-02 4.330738e-02 -1.651855e-02 -3.484343e-02 -3.616165e-02 -3.082534e-02 1.258197e-02 3.205011e-02 3.239981e-02 1.774833e-02 -7.318174e-03 -1.908300e-02 -1.512353e-02 2.627349e-02
<VARIANCE> 39
 2.027101e-01 2.101315e-01 1.544170e-01 2.674366e-01 2.207091e-01 2.483371e-01 2.363632e-01 2.091349e-01 2.211470e-01 1.771770e-01 1.335558e-01 1.091266e-01 5.202964e-02 2.301303e-02 1.844736e-02 1.426076e-02 2.167362e-02 2.052630e-02 2.144522e-02 2.302692e-02 2.259268e-02 2.081232e-02 1.601073e-02 1.279715e-02 1.116251e-02 4.437519e-03 2.405745e-03 3.623218e-03 2.791013e-03 4.264055e-03 4.160946e-03 4.751455e-03 4.704732e-03 4.229412e-03 4.424222e-03 3.450538e-03 2.753082e-03 2.465098e-03 4.752750e-04
<GCONST> -7.970223e+01
<MIXTURE> 9 1.070033e-01
<MEAN> 39
 3.922781e-01 -3.634255e-01 -1.582339e-01 -2.362846e-01 -3.631876e-01 2.339033e-01 6.963220e-01 -1.405895e-01 -2.501371e-01 1.756596e-01 -1.651132e-01 -6.620850e-02 7.761075e-01 -1.693241e-02 -4.761072e-02 -2.430015e-02 1.373955e-02 3.512702e-02 6.261323e-02 8.870846e-03 -3.323238e-02 -1.165363e-02 3.184463e-03 4.568851e-03 2.411030e-03 1.567236e-02 -1.063315e-03 3.601126e-02 2.766049e-02 1.266059e-02 7.969246e-03 -3.702454e-02 -5.375865e-02 7.262857e-03 1.447276e-02 -9.421762e-03 1.083644e-02 2.620115e-03 -1.444517e-02
<VARIANCE> 39
 9.396932e-02 1.343147e-01 1.550622e-01 2.298453e-01 1.987254e-01 2.815838e-01 3.102720e-01 2.855242e-01 2.317029e-01 1.685692e-01 1.404256e-01 1.172606e-01 2.029454e-02 3.319799e-03 8.082822e-03 8.715484e-03 1.390573e-02 1.244098e-02 1.766507e-02 1.476044e-02 1.579400e-02 1.508550e-02 1.086800e-02 1.124034e-02 9.027123e-03 6.632213e-04 1.130493e-03 1.748779e-03 1.961465e-03 2.229687e-03 2.357719e-03 3.477206e-03 3.126252e-03 2.873958e-03 2.592223e-03 2.279637e-03 1.873111e-03 1.646027e-03 1.468324e-04
<GCONST> -9.650402e+01
<MIXTURE> 10 1.061433e-01
<MEAN> 39
 1.872591e-01 -7.140146e-01 -6.504001e-02 1.307846e-01 -6.404920e-02 6.127117e-01 -6.113776e-03 -8.425021e-01 1.008814e-01 3.581464e-01 1.595109e-01 6.553519e-02 8.129511e-01 -4.019996e-02 -4.414256e-02 1.006197e-02 1.950502e-02 6.781940e-02 7.791501e-02 -8.552049e-02 -6.098824e-02 4.680507e-02 -2.079150e-03 -2.888548e-03 2.115015e-02 1.270197e-02 2.013009e-02 7.437580e-02 1.392599e-02 -3.529863e-02 -2.588540e-02 -8.371116e-02 1.732531e-02 9.003942e-02 -1.260065e-02 -4.523032e-02 -2.168377e-02 -3.928368e-03 -1.395523e-02
<VARIANCE> 39
 1.140998e-01 1.357391e-01 1.560606e-01 3.058383e-01 2.627010e-01 2.824708e-01 4.330056e-01 2.202935e-01 3.007435e-01 2.215930e-01 2.060464e-01 1.822725e-01 1.482931e-02 5.903126e-03 1.726380e-02 1.134923e-02 4.302294e-02 1.945562e-02 3.732437e-02 3.233637e-02 2.565224e-02 3.528564e-02 2.752443e-02 2.145166e-02 1.754231e-02 5.832609e-04 1.173804e-03 2.708721e-03 2.490416e-03 3.476193e-03 4.399310e-03 5.419889e-03 6.178264e-03 3.894249e-03 5.004134e-03 4.106550e-03 3.986118e-03 3.650245e-03 1.350429e-04
<GCONST> -8.052763e+01
<MIXTURE> 11 5.514222e-02
<MEAN> 39
 4.229827e-01 -8.106018e-01 -1.935007e-01 4.036551e-01 -1.590874e-01 -3.157999e-02 2.616324e-01 -3.492520e-01 -3.265753e-01 3.222369e-01 3.948677e-01 -7.238282e-02 7.303425e-01 3.744937e-02 -7.352095e-02 -5.346619e-03 -5.190472e-03 -2.398382e-02 3.405917e-02 2.188461e-02 -7.339891e-02 -1.699033e-02 2.831475e-02 1.555774e-02 -5.974662e-03 4.242643e-02 -4.639931e-02 8.998339e-02 2.865610e-02 -2.536180e-02 1.515998e-02 -3.482664e-03 -2.912220e-02 3.649984e-02 3.281334e-02 -3.528864e-02 -5.058705e-02 8.954950e-03 -3.274227e-02
<VARIANCE> 39
 2.245275e-01 1.518950e-01 2.171338e-01 3.229402e-01 2.649505e-01 3.218892e-01 3.940102e-01 3.240288e-01 3.130505e-01 2.159762e-01 1.638107e-01 1.221441e-01 3.009549e-02 1.658777e-02 2.719111e-02 1.830191e-02 2.461720e-02 1.917413e-02 3.052447e-02 2.538868e-02 2.849408e-02 2.122944e-02 1.880618e-02 1.681410e-02 1.254213e-02 4.307765e-03 4.944552e-03 3.161432e-03 3.921682e-03 4.822558e-03 4.625481e-03 6.095770e-03 6.962819e-03 5.659152e-03 5.804352e-03 3.955893e-03 3.178271e-03 2.440434e-03 5.643149e-04
<GCONST> -7.329755e+01
<MIXTURE> 12 7.226627e-02
<MEAN> 39
 5.790966e-01 -1.453195e-01 2.648840e-02 -1.346504e-01 -4.544711e-01 4.433303e-02 4.399832e-01 -1.422582e-01 -2.373862e-01 2.005981e-01 -1.196633e-01 -1.889015e-01 6.839750e-01 2.007533e-01 -9.219386e-02 -1.037228e-01 -7.007840e-02 -8.802173e-02 -4.255193e-02 1.190269e-01 4.403314e-02 -6.306959e-02 3.159384e-02 -5.621677e-03 -3.306571e-02 9.015451e-02 -7.606572e-02 4.054869e-03 3.240936e-03 2.167943e-02 4.514441e-02 -4.657068e-03 -3.696081e-02 1.925855e-02 2.155284e-02 -2.379278e-02 1.536660e-02 2.184887e-02 -2.152007e-02
<VARIANCE> 39
 1.206409e-01 1.547040e-01 1.448989e-01 1.795396e-01 1.628978e-01 1.887688e-01 1.911867e-01 2.031601e-01 1.503100e-01 1.216302e-01 1.119468e-01 7.349369e-02 2.178898e-02 2.859006e-02 2.543477e-02 2.225777e-02 3.016785e-02 2.242018e-02 2.991448e-02 2.983160e-02 3.155525e-02 2.379173e-02 1.819411e-02 1.687102e-02 1.319565e-02 3.172920e-03 2.702594e-03 2.858105e-03 2.472562e-03 2.887412e-03 3.181559e-03 3.688167e-03 3.702801e-03 3.626070e-03 2.959104e-03 2.473043e-03 2.126935e-03 1.585242e-03 3.915245e-04
<GCONST> -8.449068e+01
<MIXTURE> 13 3.662849e-02
<MEAN> 39
 1.874945e-01 -2.365212e-01 -2.896537e-01 -5.445194e-01 -3.103541e-01 2.884069e-01 6.238289e-01 5.558749e-01 5.368145e-01 5.149733e-02 -4.531601e-01 -4.938076e-01 7.158066e-01 1.758530e-02 -6.433845e-02 -5.628412e-02 -3.425975e-02 -1.242004e-02 3.963995e-02 5.364877e-02 3.268138e-02 5.952820e-02 3.199200e-02 -2.596562e-02 -5.180228e-02 3.531795e-02 -1.976582e-02 2.941159e-02 4.001836e-02 5.658790e-02 3.015370e-02 -3.207841e-02 -6.989339e-02 -6.242147e-02 -5.560207e-02 9.169493e-04 5.181974e-02 5.232679e-02 -2.475438e-02
<VARIANCE> 39
 2.001545e-01 3.621523e-01 2.634357e-01 4.842505e-01 4.281529e-01 5.176210e-01 4.519754e-01 5.117127e-01 5.992610e-01 5.890399e-01 4.810265e-01 4.563855e-01 4.556865e-02 1.666251e-02 2.969861e-02 2.716712e-02 3.677995e-02 3.099969e-02 3.836393e-02 4.377042e-02 4.955522e-02 5.039006e-02 4.405225e-02 4.371477e-02 4.234862e-02 4.162249e-03 4.465425e-03 5.288179e-03 4.737294e-03 7.489359e-03 7.629728e-03 9.536966e-03 8.320480e-03 9.052593e-03 9.992632e-03 1.004613e-02 8.137432e-03 7.649180e-03 6.466951e-04
<GCONST> -5.305167e+01
<MIXTURE> 14 4.905209e-02
<MEAN> 39
 4.354404e-01 -1.983457e-03 2.641986e-02 -6.022092e-01 -3.004348e-01 1.490525e-01 -2.663674e-01 -4.063071e-01 1.321869e-01 -1.249411e-01 7.671195e-02 4.321421e-01 6.989380e-01 1.433855e-01 -6.023766e-02 -8.504304e-02 -6.174155e-02 -3.490170e-02 9.251207e-03 2.001913e-02 -5.998478e-02 -2.114832e-02 -8.915674e-03 -1.387066e-02 1.895682e-02 6.254454e-02 -7.079712e-02 9.063193e-04 6.365192e-03 6.821013e-02 3.654988e-02 -1.230270e-02 4.361567e-02 5.382268e-02 -1.820262e-02 1.066661e-02 -1.199179e-02 -5.627750e-02 -2.545621e-02
<VARIANCE> 39
 1.709663e-01 2.860095e-01 2.576627e-01 3.014040e-01 2.902500e-01 4.090350e-01 3.139082e-01 2.634637e-01 2.017225e-01 2.496949e-01 2.085841e-01 1.461443e-01 2.932341e-02 3.915258e-02 3.456751e-02 3.477695e-02 5.015784e-02 3.447595e-02 3.695098e-02 4.058342e-02 3.557658e-02 2.924248e-02 2.825213e-02 2.464280e-02 2.287176e-02 5.819287e-03 4.110416e-03 4.999528e-03 5.089862e-03 5.382974e-03 5.213426e-03 8.323293e-03 5.995759e-03 5.548535e-03 4.634121e-03 5.172735e-03 4.133022e-03 3.014479e-03 6.773116e-04
<GCONST> -6.529996e+01
<MIXTURE> 15 2.830912e-02
<MEAN> 39
 -2.285293e-01 -1.290145e-01 6.250447e-02 2.882314e-01 1.232666e-01 1.046812e-01 2.226840e-02 -2.991510e-02 2.857803e-02 1.019877e-01 2.843952e-02 -1.026745e-01 2.851677e-01 -1.358077e-02 4.429003e-02 -6.400276e-03 -4.045524e-02 -5.950852e-03 -6.232918e-04 -5.049977e-03 4.144967e-02 2.148370e-02 -2.546239e-02 -2.952637e-02 1.022305e-02 -1.007127e-03 2.695612e-02 5.364177e-03 4.845221e-03 -1.431758e-02 -1.438732e-02 -9.794506e-03 -5.054396e-03 -1.186094e-02 -1.075036e-02 -9.692973e-03 7.182310e-04 1.446450e-02 1.414673e-02
<VARIANCE> 39
 2.216302e-01 2.694788e-01 1.859694e-01 3.045906e-01 1.959558e-01 2.202343e-01 2.245451e-01 2.322040e-01 2.039626e-01 1.697959e-01 1.369336e-01 9.340189e-02 4.602341e-02 3.109053e-02 3.053889e-02 2.067831e-02 3.155068e-02 2.461327e-02 2.671451e-02 3.045622e-02 3.108735e-02 2.507992e-02 2.194237e-02 1.641794e-02 1.450367e-02 6.519977e-03 2.326976e-03 3.695364e-03 2.637990e-03 3.526831e-03 3.192611e-03 3.542310e-03 4.106446e-03 3.839766e-03 3.486256e-03 3.230502e-03 2.695733e-03 1.906912e-03 4.136753e-04
<GCONST> -7.743293e+01
<MIXTURE> 16 2.774949e-02
<MEAN> 39
 -3.294216e-01 2.853148e-01 1.672291e-01 1.890219e-01 9.769353e-02 1.026170e-01 -6.835209e-02 1.322243e-01 -3.564380e-02 -1.204798e-01 -8.155856e-02 2.504028e-02 6.226715e-02 1.921668e-01 -1.748685e-01 -5.650778e-02 1.142996e-02 -5.924001e-02 -8.361009e-03 4.734626e-02 -9.837253e-02 -2.039744e-02 8.357149e-02 5.681459e-02 -2.593800e-02 1.303536e-01 4.687979e-02 -7.724426e-02 -2.760032e-02 2.850926e-03 -1.868390e-02 2.676786e-04 1.981830e-02 -4.008509e-02 -7.401618e-03 3.726137e-02 2.731990e-02 -1.017112e-02 4.354221e-02
<VARIANCE> 39
 1.893230e-01 1.112680e-01 1.196329e-01 1.885429e-01 1.440492e-01 1.565407e-01 1.619687e-01 1.592124e-01 1.695654e-01 1.286736e-01 1.114625e-01 8.819579e-02 2.399794e-02 2.585270e-02 2.329984e-02 2.094364e-02 2.866110e-02 2.228240e-02 2.731877e-02 3.295908e-02 2.909343e-02 3.095982e-02 2.141400e-02 1.819946e-02 1.318564e-02 4.239538e-03 2.025380e-03 2.093303e-03 2.368626e-03 3.621686e-03 3.238627e-03 4.029711e-03 4.523016e-03 3.720040e-03 4.608204e-03 3.104643e-03 2.639099e-03 2.247972e-03 2.641306e-04
<GCONST> -8.361075e+01
<STATE> 3
<NUMMIXES> 16
<MIXTURE> 1 9.057692e-02
<MEAN> 39
 1.299526e-01 -6.605365e-01 -1.190834e-01 1.086137e-01 6.935270e-02 4.568681e-01 -8.883636e-02 -4.673700e-01 1.422745e-01 1.787518e-01 1.352496e-01 1.061348e-02 8.963780e-01 -2.856416e-03 -1.050194e-02 9.563487e-03 1.107822e-02 9.418689e-03 -1.395261e-03 -1.117996e-02 -1.249355e-02 5.817984e-04 5.832703e-03 5.350799e-03 4.899324e-03 1.911271e-04 6.577998e-03 4.592143e-03 2.487033e-03 -9.265896e-03 -9.159247e-03 -9.055467e-04 8.367140e-03 5.362681e-03 -2.060381e-03 -6.743309e-03 -3.062142e-03 2.187223e-03 -2.044512e-03
<VARIANCE> 39
 1.427391e-01 1.670858e-01 1.986151e-01 4.067378e-01 2.927891e-01 2.934719e-01 5.297726e-01 2.996767e-01 2.866446e-01 2.748469e-01 2.307280e-01 1.853134e-01 4.533967e-03 2.284769e-03 4.229118e-03 4.550505e-03 7.588678e-03 7.120014e-03 8.281413e-03 9.768162e-03 9.939196e-03 9.741180e-03 9.981982e-03 8.701798e-03 7.936589e-03 8.515367e-05 4.146370e-04 7.280752e-04 7.350503e-04 1.070075e-03 1.166952e-03 1.304232e-03 1.575155e-03 1.550093e-03 1.515332e-03 1.563492e-03 1.433076e-03 1.290044e-03 1.312255e-05
<GCONST> -1.117304e+02
<MIXTURE> 2 7.610214e-02
<MEAN> 39
 1.264018e-01 -3.197560e-01 -1.766985e-02 -6.725471e-01 -7.450859e-02 7.593167e-01 -1.920103e-02 -3.277895e-01 3.805725e-01 -2.015970e-01 -7.792066e-02 2.836034e-01 8.515286e-01 -8.000003e-04 1.170682e-01 1.403116e-02 -1.400578e-01 5.342088e-02 -1.584228e-02 -1.102927e-01 1.025355e-01 5.702653e-02 -1.054705e-01 1.389496e-02 1.450807e-02 -8.456856e-03 2.754431e-02 4.878575e-02 2.473832e-03 2.442480e-02 -2.313709e-02 -9.141617e-02 1.001502e-02 3.134668e-02 -3.954221e-02 2.505456e-02 1.138270e-02 -3.423692e-02 -1.229967e-02
<VARIANCE> 39
 1.087526e-01 1.690032e-01 1.425478e-01 2.787881e-01 2.714263e-01 2.362384e-01 3.925003e-01 3.023498e-01 2.615990e-01 3.023100e-01 3.069913e-01 1.903236e-01 8.242182e-03 4.466844e-03 1.132932e-02 9.538686e-03 1.974603e-02 2.309475e-02 1.935248e-02 2.499131e-02 2.290614e-02 2.539932e-02 2.197156e-02 1.952387e-02 1.686924e-02 3.093737e-04 9.478337e-04 1.965266e-03 2.176702e-03 3.398999e-03 3.476446e-03 4.158524e-03 4.753312e-03 4.943851e-03 4.872052e-03 4.361041e-03 4.207807e-03 3.119857e-03 9.374470e-05
<GCONST> -8.592197e+01
<MIXTURE> 3 7.216177e-02
<MEAN> 39
 3.255105e-01 -7.367696e-01 -3.743572e-01 4.118809e-01 -5.859761e-02 1.238753e-01 6.346959e-01 -3.915325e-01 -6.025923e-01 3.754583e-01 3.489240e-01 -1.370392e-01 8.503406e-01 1.184816e-02 -3.641670e-02 -3.509475e-02 9.978975e-02 4.335880e-02 -7.467058e-02 -1.735406e-02 3.257271e-02 -7.180835e-02 -1.352089e-02 7.654744e-02 8.345330e-03 3.084281e-04 8.279037e-03 2.523332e-02 1.197042e-02 -2.696894e-02 -1.086125e-02 -7.941801e-03 -2.211184e-02 2.455975e-02 3.993333e-02 -2.712286e-02 -3.047224e-02 1.143300e-02 -5.864944e-03
<VARIANCE> 39
 1.120034e-01 1.273466e-01 1.380968e-01 2.873948e-01 2.040837e-01 2.247981e-01 2.696858e-01 2.622150e-01 1.834710e-01 1.575104e-01 1.590952e-01 1.200303e-01 9.546463e-03 3.669861e-03 5.497382e-03 7.098400e-03 1.083049e-02 1.091997e-02 1.600504e-02 1.439123e-02 1.834741e-02 1.344838e-02 1.324275e-02 1.061128e-02 1.014989e-02 2.419175e-04 5.619063e-04 1.069460e-03 1.083312e-03 1.576502e-03 1.777497e-03 2.365650e-03 2.094793e-03 2.183777e-03 2.003042e-03 1.873820e-03 1.872782e-03 1.800503e-03 3.484317e-05
<GCONST> -1.045931e+02
<MIXTURE> 4 4.155564e-02
<MEAN> 39
 3.072459e-01 -5.486224e-01 -2.837491e-01 1.723783e-02 -4.284373e-01 1.527575e-01 7.191794e-01 -1.559471e-01 -3.114659e-01 3.771594e-01 1.815402e-01 -1.484932e-01 8.450023e-01 3.725490e-02 3.040701e-02 -5.232773e-03 3.512501e-02 1.171784e-03 -9.746896e-02 -1.693133e-02 5.059898e-02 -3.067006e-02 -2.685127e-02 6.540872e-03 2.136302e-02 -1.190681e-02 1.021781e-02 6.230513e-02 2.863554e-02 -3.135615e-02 1.760288e-02 -4.245001e-02 -7.965831e-02 2.738081e-02 5.580474e-02 -4.299225e-02 -3.112232e-02 2.403584e-02 -1.380695e-02
<VARIANCE> 39
 1.114749e-01 1.934308e-01 2.005274e-01 3.591033e-01 2.406658e-01 3.042648e-01 3.045484e-01 4.053070e-01 3.655753e-01 3.566588e-01 3.721929e-01 2.417755e-01 9.270957e-03 7.220963e-03 1.448602e-02 2.312729e-02 4.524820e-02 2.760880e-02 5.399318e-02 3.797126e-02 4.613004e-02 4.827568e-02 3.197275e-02 3.362517e-02 2.888997e-02 4.977680e-04 1.173236e-03 2.986856e-03 2.927385e-03 4.300105e-03 4.231430e-03 6.252646e-03 5.023056e-03 6.710163e-03 6.147247e-03 6.161043e-03 6.046812e-03 4.271396e-03 1.181750e-04
<GCONST> -7.299296e+01
<MIXTURE> 5 9.696089e-02
<MEAN> 39
 2.686960e-01 -5.894511e-01 4.870968e-02 -2.150380e-01 -3.167463e-02 8.309419e-01 -1.529087e-01 -6.833012e-01 2.900230e-01 -1.772934e-02 -2.392285e-02 1.943085e-01 8.244780e-01 -5.079863e-05 9.662250e-03 1.527593e-02 -2.029187e-02 1.412979e-02 9.306317e-03 -3.271356e-02 4.430796e-03 1.996691e-02 -2.078768e-02 -8.007570e-03 1.244704e-02 -1.997464e-03 8.136157e-03 3.134721e-02 -1.612246e-03 -6.888623e-03 -1.659630e-02 -3.806350e-02 1.811263e-02 3.075308e-02 -1.653678e-02 1.713463e-03 -5.508717e-03 -1.540412e-02 -5.801810e-03
<VARIANCE> 39
 1.031196e-01 1.094557e-01 1.091587e-01 2.244572e-01 2.032336e-01 1.818713e-01 3.376687e-01 1.798280e-01 1.775789e-01 1.535327e-01 1.296419e-01 9.923139e-02 9.889942e-03 3.190074e-03 6.768161e-03 5.260954e-03 1.235800e-02 9.906781e-03 1.009499e-02 1.130911e-02 1.128685e-02 1.051941e-02 1.062529e-02 7.968753e-03 6.532984e-03 2.302686e-04 5.287629e-04 9.866403e-04 8.819047e-04 1.338008e-03 1.617378e-03 1.711131e-03 1.785143e-03 1.628139e-03 1.818421e-03 1.465721e-03 1.429882e-03 1.135289e-03 3.331024e-05
<GCONST> -1.112242e+02
<MIXTURE> 6 5.575252e-02
<MEAN> 39
 5.148173e-01 -7.214634e-01 -1.802804e-01 2.819462e-01 -2.344287e-01 1.639902e-01 3.759323e-01 -4.033076e-01 -3.616985e-01 3.560956e-01 1.789311e-01 -1.601700e-01 8.183174e-01 3.575276e-03 1.980604e-02 3.820569e-02 -3.204871e-02 -1.146811e-02 2.120122e-02 -2.092994e-02 -2.811423e-02 3.772660e-02 3.541484e-03 -3.826993e-02 8.262697e-04 1.269036e-03 -1.390590e-02 5.961867e-02 2.347543e-02 -1.993758e-02 7.267370e-03 -2.779119e-02 -2.235846e-02 2.709354e-02 2.121080e-02 -3.243906e-02 -1.942828e-02 1.525849e-02 -1.733801e-02
<VARIANCE> 39
 1.901644e-01 1.531114e-01 1.603777e-01 3.030839e-01 1.976340e-01 2.530273e-01 2.749713e-01 2.351672e-01 1.634982e-01 1.392652e-01 1.262461e-01 8.814555e-02 1.322357e-02 5.505151e-03 8.744853e-03 9.341429e-03 1.422324e-02 1.182536e-02 1.673874e-02 1.319504e-02 1.505257e-02 1.257988e-02 1.003875e-02 9.888658e-03 7.077135e-03 8.291582e-04 2.026608e-03 2.027994e-03 2.140360e-03 2.756137e-03 2.504257e-03 3.701464e-03 2.878701e-03 2.831416e-03 2.262938e-03 2.100713e-03 1.649674e-03 1.417379e-03 1.611840e-04
<GCONST> -9.648689e+01
<MIXTURE> 7 5.245901e-02
<MEAN> 39
 3.086647e-01 1.984775e-01 6.535017e-02 -8.937275e-01 -5.547609e-02 1.220832e-01 -1.015900e-01 1.874116e-01 3.265668e-01 -2.032762e-01 -2.408333e-01 3.273763e-02 7.691501e-01 1.745648e-02 1.493558e-02 -2.159616e-02 -2.448029e-02 1.890323e-02 -1.630039e-02 -8.449098e-03 7.125854e-03 -1.484811e-03 -1.487918e-03 -1.033266e-04 -3.894039e-03 1.096765e-02 -1.410475e-02 5.139818e-04 1.210255e-02 6.934572e-02 -7.232196e-03 -1.996593e-02 6.829281e-03 -2.261796e-02 -3.688432e-02 1.630907e-02 1.926502e-02 -2.419104e-03 -1.749437e-02
<VARIANCE> 39
 1.711290e-01 2.499146e-01 2.460478e-01 4.249733e-01 3.545859e-01 3.099004e-01 2.718988e-01 2.856288e-01 2.206007e-01 2.192430e-01 1.956082e-01 1.563644e-01 2.068011e-02 8.416520e-03 1.467908e-02 1.352859e-02 2.053189e-02 1.998707e-02 1.842912e-02 2.111273e-02 2.111085e-02 1.768150e-02 1.594472e-02 1.460710e-02 1.247521e-02 9.284791e-04 2.945589e-03 2.925158e-03 3.205565e-03 4.976613e-03 4.447598e-03 4.269469e-03 3.914230e-03 4.206907e-03 3.423889e-03 3.142099e-03 3.019529e-03 2.374312e-03 2.965811e-04
<GCONST> -8.146951e+01
<MIXTURE> 8 3.648822e-02
<MEAN> 39
 7.224866e-01 -1.841009e-01 -4.586850e-01 5.964247e-02 -3.003370e-01 -5.432550e-01 5.048626e-01 5.639174e-01 -2.861790e-01 -9.940741e-02 -5.055390e-02 -1.430405e-01 7.659088e-01 6.758567e-02 4.906009e-02 -3.863247e-02 2.298792e-03 5.198668e-02 -1.012815e-01 -8.741766e-02 5.137666e-02 2.947983e-02 -2.572975e-02 -2.834665e-02 5.823758e-03 -9.721524e-04 -6.426992e-02 3.578490e-02 6.914285e-02 -1.022898e-02 2.666121e-02 4.203687e-02 -6.135220e-02 -7.208439e-02 2.872732e-02 1.540100e-02 -3.104673e-03 1.342741e-02 -2.351772e-02
<VARIANCE> 39
 9.831817e-02 1.491348e-01 2.495451e-01 2.009822e-01 2.613502e-01 2.046583e-01 2.963381e-01 2.501853e-01 1.649904e-01 1.525316e-01 1.204644e-01 1.340346e-01 1.554285e-02 1.310755e-02 1.756637e-02 3.163049e-02 2.450182e-02 2.766972e-02 3.346305e-02 4.222162e-02 3.667015e-02 2.387392e-02 1.897292e-02 1.683030e-02 1.455822e-02 2.402926e-03 2.774485e-03 3.546669e-03 4.130362e-03 4.215074e-03 4.846627e-03 4.826329e-03 6.035212e-03 5.166296e-03 4.041057e-03 3.717493e-03 2.851324e-03 2.905744e-03 2.895897e-04
<GCONST> -7.856020e+01
<MIXTURE> 9 9.312633e-02
<MEAN> 39
 1.968706e-01 -8.279830e-01 8.049995e-02 2.645395e-01 4.456327e-02 5.322706e-01 -7.954524e-02 -7.954996e-01 2.517161e-01 3.538983e-01 -9.130077e-03 -3.373094e-02 7.880734e-01 1.490351e-02 -1.462739e-02 8.580929e-03 7.425380e-02 -1.843046e-02 -7.851342e-02 2.264545e-02 1.091100e-02 -4.029034e-02 4.021792e-02 7.662467e-03 -2.998339e-02 -8.039483e-03 1.199237e-02 3.820067e-02 -3.182896e-03 -1.909785e-02 -1.983248e-02 -2.393889e-02 1.471234e-02 3.688632e-02 -2.097601e-02 -2.699782e-02 1.869579e-03 4.260968e-03 -8.187423e-03
<VARIANCE> 39
 9.710394e-02 1.192192e-01 1.235756e-01 2.789446e-01 2.005853e-01 2.062518e-01 3.202603e-01 1.819258e-01 2.358413e-01 1.692311e-01 1.254105e-01 1.234976e-01 1.576203e-02 4.104253e-03 6.640311e-03 6.260514e-03 1.405026e-02 1.014181e-02 1.430534e-02 1.565641e-02 1.150515e-02 1.338788e-02 1.228589e-02 1.015344e-02 8.659873e-03 5.261612e-04 6.694374e-04 1.277698e-03 1.062975e-03 1.633356e-03 1.965618e-03 2.308016e-03 2.496029e-03 2.193256e-03 2.135426e-03 2.029443e-03 1.780979e-03 1.613133e-03 6.132729e-05
<GCONST> -1.030895e+02
<MIXTURE> 10 9.855825e-02
<MEAN> 39
 1.110563e-01 -6.460172e-01 1.780793e-02 1.467780e-01 -1.495938e-02 3.715353e-01 5.694987e-02 -2.690595e-01 1.257675e-01 8.544523e-02 -3.168729e-02 -3.323572e-02 8.565309e-01 -6.879958e-04 -5.118311e-03 8.673551e-04 1.947396e-02 -8.950013e-04 -1.912565e-02 2.984979e-03 1.604896e-03 -4.063245e-03 1.460174e-02 2.102904e-03 -9.979641e-03 -1.661230e-03 8.527678e-03 6.463098e-03 -6.631404e-04 -9.302366e-03 -8.026754e-03 -3.501713e-04 -2.822292e-03 -3.270161e-03 6.150225e-04 -7.299928e-04 5.233877e-03 1.698288e-03 -3.187232e-03
<VARIANCE> 39
